{"learner":{"attributes":{"best_iteration":"282","best_score":"0.08550899463035132","scikit_learn":"{\"_estimator_type\": \"classifier\"}"},"feature_names":["Ed","delta_x","delta_y","delta_z","edist","dist_wall_p","dist_wall_d","dist_wall_h_p","dist_wall_h_d","edist_over_r","delta_r","delta_theta","delta_t","diffusion","ds2"],"feature_types":["float","float","float","float","float","float","float","float","float","float","float","float","float","float","float"],"gradient_booster":{"model":{"cats":{"enc":[],"feature_segments":[],"sorted_idx":[]},"gbtree_model_param":{"num_parallel_tree":"1","num_trees":"283"},"iteration_indptr":[0,1,2,3,4,5,6,7,8,9,10,11,12,13,14,15,16,17,18,19,20,21,22,23,24,25,26,27,28,29,30,31,32,33,34,35,36,37,38,39,40,41,42,43,44,45,46,47,48,49,50,51,52,53,54,55,56,57,58,59,60,61,62,63,64,65,66,67,68,69,70,71,72,73,74,75,76,77,78,79,80,81,82,83,84,85,86,87,88,89,90,91,92,93,94,95,96,97,98,99,100,101,102,103,104,105,106,107,108,109,110,111,112,113,114,115,116,117,118,119,120,121,122,123,124,125,126,127,128,129,130,131,132,133,134,135,136,137,138,139,140,141,142,143,144,145,146,147,148,149,150,151,152,153,154,155,156,157,158,159,160,161,162,163,164,165,166,167,168,169,170,171,172,173,174,175,176,177,178,179,180,181,182,183,184,185,186,187,188,189,190,191,192,193,194,195,196,197,198,199,200,201,202,203,204,205,206,207,208,209,210,211,212,213,214,215,216,217,218,219,220,221,222,223,224,225,226,227,228,229,230,231,232,233,234,235,236,237,238,239,240,241,242,243,244,245,246,247,248,249,250,251,252,253,254,255,256,257,258,259,260,261,262,263,264,265,266,267,268,269,270,271,272,273,274,275,276,277,278,279,280,281,282,283],"tree_info":[0,0,0,0,0,0,0,0,0,0,0,0,0,0,0,0,0,0,0,0,0,0,0,0,0,0,0,0,0,0,0,0,0,0,0,0,0,0,0,0,0,0,0,0,0,0,0,0,0,0,0,0,0,0,0,0,0,0,0,0,0,0,0,0,0,0,0,0,0,0,0,0,0,0,0,0,0,0,0,0,0,0,0,0,0,0,0,0,0,0,0,0,0,0,0,0,0,0,0,0,0,0,0,0,0,0,0,0,0,0,0,0,0,0,0,0,0,0,0,0,0,0,0,0,0,0,0,0,0,0,0,0,0,0,0,0,0,0,0,0,0,0,0,0,0,0,0,0,0,0,0,0,0,0,0,0,0,0,0,0,0,0,0,0,0,0,0,0,0,0,0,0,0,0,0,0,0,0,0,0,0,0,0,0,0,0,0,0,0,0,0,0,0,0,0,0,0,0,0,0,0,0,0,0,0,0,0,0,0,0,0,0,0,0,0,0,0,0,0,0,0,0,0,0,0,0,0,0,0,0,0,0,0,0,0,0,0,0,0,0,0,0,0,0,0,0,0,0,0,0,0,0,0,0,0,0,0,0,0,0,0,0,0,0,0,0,0,0,0,0,0,0,0,0,0,0,0,0,0,0,0,0,0],"trees":[{"base_weights":[-6.104957E-4,1.4881911E0,-1.6352708E0,1.5782113E0,-1.511308E0,-7.044764E-1,-1.8635267E0,7.801191E-1,1.805461E0,3.2152903E-1,-1.6824466E0,-1.696922E0,5.62698E-1,-1.5455625E0,-1.9493295E0,8.795289E-2,-1.5928412E-2,1.1006432E-1,7.754015E-2,-2.8988704E-2,6.5347455E-2,-5.4901805E-2,-1.0896318E-1,-1.09563485E-1,-6.517283E-2,-3.360391E-2,6.121098E-2,-1.0710998E-1,-2.2078652E-2,-1.1416891E-1,-1.022469E-1],"categories":[],"categories_nodes":[],"categories_segments":[],"categories_sizes":[],"default_left":[0,0,0,0,0,0,0,0,0,0,0,0,0,0,0,0,0,0,0,0,0,0,0,0,0,0,0,0,0,0,0],"id":0,"left_children":[1,3,5,7,9,11,13,15,17,19,21,23,25,27,29,-1,-1,-1,-1,-1,-1,-1,-1,-1,-1,-1,-1,-1,-1,-1,-1],"loss_changes":[6.612996E4,3.8477793E3,2.7438281E3,2.495961E3,1.3408923E2,3.2209102E3,2.686875E2,2.4102683E3,4.8726172E2,2.7871332E1,4.7086304E1,1.521665E2,6.4329626E2,7.968462E2,2.372461E1,0E0,0E0,0E0,0E0,0E0,0E0,0E0,0E0,0E0,0E0,0E0,0E0,0E0,0E0,0E0,0E0],"parents":[2147483647,0,0,1,1,2,2,3,3,4,4,5,5,6,6,7,7,8,8,9,9,10,10,11,11,12,12,13,13,14,14],"right_children":[2,4,6,8,10,12,14,16,18,20,22,24,26,28,30,-1,-1,-1,-1,-1,-1,-1,-1,-1,-1,-1,-1,-1,-1,-1,-1],"split_conditions":[6.082148E-2,1.1146499E0,4.54348E-1,-1.730035E-1,-1.0664017E0,2.6656577E-1,7.651088E-1,-6.092433E-1,-3.5546663E-1,-1.4793776E0,1.2144241E0,-1.3556904E-2,-2.0518243E-2,7.4009085E-1,1.1587614E0,8.795289E-2,-1.5928412E-2,1.1006432E-1,7.754015E-2,-2.8988704E-2,6.5347455E-2,-5.4901805E-2,-1.0896318E-1,-1.09563485E-1,-6.517283E-2,-3.360391E-2,6.121098E-2,-1.0710998E-1,-2.2078652E-2,-1.1416891E-1,-1.022469E-1],"split_indices":[4,0,4,0,4,13,4,4,4,13,0,13,0,13,13,0,0,0,0,0,0,0,0,0,0,0,0,0,0,0,0],"split_type":[0,0,0,0,0,0,0,0,0,0,0,0,0,0,0,0,0,0,0,0,0,0,0,0,0,0,0,0,0,0,0],"sum_hessian":[2.7166E4,1.4217E4,1.2949E4,1.380475E4,4.1225E2,2.554E3,1.0395E4,3.06425E3,1.07405E4,3.425E1,3.78E2,1.43225E3,1.12175E3,2.226E3,8.169E3,1.7985E3,1.26575E3,8.8095E3,1.931E3,1.675E1,1.75E1,8.825E1,2.8975E2,1.051E3,3.8125E2,3.3875E2,7.83E2,1.75575E3,4.7025E2,7.029E3,1.14E3],"tree_param":{"num_deleted":"0","num_feature":"15","num_nodes":"31","size_leaf_vector":"1"}},{"base_weights":[-7.8009274E-3,1.0760447E0,-1.5573545E0,1.6442999E0,-3.8778E-1,2.4615072E-1,-1.7418984E0,1.6891637E0,-1.2377797E0,2.151575E-1,-1.5132416E0,1.2389107E0,-1.6114463E0,-1.2410221E0,-1.8444184E0,1.00490496E-1,1.2305737E-2,-6.807882E-3,-9.443433E-2,4.4344265E-2,-7.28427E-2,-6.1988097E-2,-1.0008686E-1,8.9051984E-2,1.8028868E-2,-4.174318E-2,-1.0307704E-1,2.023244E-2,-9.873033E-2,-9.697329E-2,-1.086963E-1],"categories":[],"categories_nodes":[],"categories_segments":[],"categories_sizes":[],"default_left":[0,0,0,0,0,0,0,0,0,0,0,0,0,0,0,0,0,0,0,0,0,0,0,0,0,0,0,0,0,0,0],"id":1,"left_children":[1,3,5,7,9,11,13,15,17,19,21,23,25,27,29,-1,-1,-1,-1,-1,-1,-1,-1,-1,-1,-1,-1,-1,-1,-1,-1],"loss_changes":[4.57085E4,1.3324531E4,3.731791E3,1.4993672E3,3.0430557E3,1.9278247E3,5.0986523E2,8.543418E2,7.627661E1,2.3857373E3,1.4119336E2,1.8733362E2,4.8302612E1,1.3016592E3,3.7289062E1,0E0,0E0,0E0,0E0,0E0,0E0,0E0,0E0,0E0,0E0,0E0,0E0,0E0,0E0,0E0,0E0],"parents":[2147483647,0,0,1,1,2,2,3,3,4,4,5,5,6,6,7,7,8,8,9,9,10,10,11,11,12,12,13,13,14,14],"right_children":[2,4,6,8,10,12,14,16,18,20,22,24,26,28,30,-1,-1,-1,-1,-1,-1,-1,-1,-1,-1,-1,-1,-1,-1,-1,-1],"split_conditions":[1.1912196E-1,3.9171043E-1,-9.1817397E-1,1.1353581E0,8.997798E-1,9.927811E-1,4.7255662E-1,4.4846693E-1,-3.2580432E-1,1.0855994E0,1.3010492E0,6.222679E-1,1.1914988E0,-9.509106E-2,7.9158026E-1,1.00490496E-1,1.2305737E-2,-6.807882E-3,-9.443433E-2,4.4344265E-2,-7.28427E-2,-6.1988097E-2,-1.0008686E-1,8.9051984E-2,1.8028868E-2,-4.174318E-2,-1.0307704E-1,2.023244E-2,-9.873033E-2,-9.697329E-2,-1.086963E-1],"split_indices":[12,9,13,0,3,12,12,3,9,2,3,12,12,13,12,0,0,0,0,0,0,0,0,0,0,0,0,0,0,0,0],"split_type":[0,0,0,0,0,0,0,0,0,0,0,0,0,0,0,0,0,0,0,0,0,0,0,0,0,0,0,0,0,0,0],"sum_hessian":[2.7208834E4,1.6010377E4,1.1198456E4,1.15336E4,4.476778E3,1.0387008E3,1.0159756E4,1.1358658E4,1.7494107E2,2.9160337E3,1.5607439E3,6.781495E2,3.6055133E2,1.7359738E3,8.423782E3,1.0976501E4,3.821576E2,4.7910397E1,1.2703068E2,2.123595E3,7.924388E2,5.2935474E2,1.0313892E3,5.0808853E2,1.7006099E2,6.3108643E1,2.974427E2,3.9455026E2,1.3414235E3,1.6134958E3,6.810286E3],"tree_param":{"num_deleted":"0","num_feature":"15","num_nodes":"31","size_leaf_vector":"1"}},{"base_weights":[1.18144335E-5,1.344816E0,-1.4720666E0,1.5959878E0,6.050328E-1,-6.038264E-1,-1.6770909E0,1.2406479E0,1.670517E0,-1.1017741E0,1.3197787E0,-1.4443827E0,6.300187E-1,-1.4164726E0,-1.7686495E0,8.9659795E-2,4.121895E-2,7.9101324E-2,9.9205986E-2,-9.1971904E-2,-2.2951031E-2,4.036762E-2,9.1128886E-2,-9.4041E-2,-3.4671575E-2,-1.7688341E-2,6.3423775E-2,-9.709505E-2,-2.469963E-2,-1.03066035E-1,-9.065518E-2],"categories":[],"categories_nodes":[],"categories_segments":[],"categories_sizes":[],"default_left":[0,0,0,0,0,0,0,0,0,0,0,0,0,0,0,0,0,0,0,0,0,0,0,0,0,0,0,0,0,0,0],"id":2,"left_children":[1,3,5,7,9,11,13,15,17,19,21,23,25,27,29,-1,-1,-1,-1,-1,-1,-1,-1,-1,-1,-1,-1,-1,-1,-1,-1],"loss_changes":[5.35791E4,2.621873E3,2.2933828E3,2.6851172E2,4.387056E3,2.5707732E3,2.3646094E2,2.966914E2,1.1238867E2,3.621538E2,3.9953174E2,2.2274512E2,4.4275577E2,7.120088E2,1.0875E1,0E0,0E0,0E0,0E0,0E0,0E0,0E0,0E0,0E0,0E0,0E0,0E0,0E0,0E0,0E0,0E0],"parents":[2147483647,0,0,1,1,2,2,3,3,4,4,5,5,6,6,7,7,8,8,9,9,10,10,11,11,12,12,13,13,14,14],"right_children":[2,4,6,8,10,12,14,16,18,20,22,24,26,28,30,-1,-1,-1,-1,-1,-1,-1,-1,-1,-1,-1,-1,-1,-1,-1,-1],"split_conditions":[6.082148E-2,-4.3512204E-1,4.3823975E-1,-6.4053065E-1,-2.2698008E-1,3.3784273E-1,8.177383E-1,-8.9678204E-1,-9.72982E-1,-4.9672404E-1,-1.4285816E-1,1.2377E-1,-3.0024135E-1,7.4009085E-1,1.4742562E0,8.9659795E-2,4.121895E-2,7.9101324E-2,9.9205986E-2,-9.1971904E-2,-2.2951031E-2,4.036762E-2,9.1128886E-2,-9.4041E-2,-3.4671575E-2,-1.7688341E-2,6.3423775E-2,-9.709505E-2,-2.469963E-2,-1.03066035E-1,-9.065518E-2],"split_indices":[4,4,4,6,13,13,4,4,7,13,6,13,6,13,13,0,0,0,0,0,0,0,0,0,0,0,0,0,0,0,0],"split_type":[0,0,0,0,0,0,0,0,0,0,0,0,0,0,0,0,0,0,0,0,0,0,0,0,0,0,0,0,0,0,0],"sum_hessian":[2.7058246E4,1.4141058E4,1.2917188E4,1.055249E4,3.5885674E3,2.4713875E3,1.0445801E4,1.8430637E3,8.709427E3,1.0580845E3,2.530483E3,1.4703129E3,1.00107465E3,2.7340088E3,7.7117915E3,1.1515719E3,6.914918E2,1.207874E3,7.5015522E3,6.197604E2,4.383241E2,7.491484E2,1.7813346E3,1.202887E3,2.6742587E2,3.331702E2,6.679044E2,2.1530247E3,5.8098413E2,7.0957383E3,6.160534E2],"tree_param":{"num_deleted":"0","num_feature":"15","num_nodes":"31","size_leaf_vector":"1"}},{"base_weights":[1.0013662E-3,1.2478552E0,-1.4371107E0,1.5322971E0,-1.1684936E0,-5.820682E-1,-1.6349876E0,1.5682093E0,-1.2910354E0,-4.3110058E-1,-1.686017E0,5.0911576E-1,-1.3900403E0,-1.3083065E0,-1.6874436E0,6.77628E-2,9.5977135E-2,-5.350871E-4,-9.137241E-2,4.6114504E-2,-5.7215907E-2,-8.241049E-3,-9.954941E-2,-3.420607E-2,5.8465336E-2,-4.5236234E-2,-9.297446E-2,-3.275161E-2,-9.328494E-2,-8.873914E-2,-9.8526254E-2],"categories":[],"categories_nodes":[],"categories_segments":[],"categories_sizes":[],"default_left":[0,0,0,0,0,0,0,0,0,0,0,0,0,0,0,0,0,0,0,0,0,0,0,0,0,0,0,0,0,0,0],"id":3,"left_children":[1,3,5,7,9,11,13,15,17,19,21,23,25,27,29,-1,-1,-1,-1,-1,-1,-1,-1,-1,-1,-1,-1,-1,-1,-1,-1],"loss_changes":[4.784966E4,9.830672E3,2.0902812E3,1.3039824E3,5.695823E2,2.0625415E3,1.6077539E2,4.579375E2,5.820331E1,4.3453705E2,4.836914E1,5.544767E2,1.7180298E2,3.1500903E2,1.1263672E1,0E0,0E0,0E0,0E0,0E0,0E0,0E0,0E0,0E0,0E0,0E0,0E0,0E0,0E0,0E0,0E0],"parents":[2147483647,0,0,1,1,2,2,3,3,4,4,5,5,6,6,7,7,8,8,9,9,10,10,11,11,12,12,13,13,14,14],"right_children":[2,4,6,8,10,12,14,16,18,20,22,24,26,28,30,-1,-1,-1,-1,-1,-1,-1,-1,-1,-1,-1,-1,-1,-1,-1,-1],"split_conditions":[1.10598065E-1,5.11563E-1,-3.7831834E-1,1.1730087E0,1.0115541E0,6.39558E-1,7.12593E-2,-1.730035E-1,-7.6098394E-1,-7.6098394E-1,-1.2787377E0,-2.0518243E-2,9.062011E-1,6.1003596E-1,4.0635598E-1,6.77628E-2,9.5977135E-2,-5.350871E-4,-9.137241E-2,4.6114504E-2,-5.7215907E-2,-8.241049E-3,-9.954941E-2,-3.420607E-2,5.8465336E-2,-4.5236234E-2,-9.297446E-2,-3.275161E-2,-9.328494E-2,-8.873914E-2,-9.8526254E-2],"split_indices":[4,12,12,0,12,4,12,0,4,4,4,0,4,4,4,0,0,0,0,0,0,0,0,0,0,0,0,0,0,0,0],"split_type":[0,0,0,0,0,0,0,0,0,0,0,0,0,0,0,0,0,0,0,0,0,0,0,0,0,0,0,0,0,0,0],"sum_hessian":[2.6678672E4,1.4290301E4,1.2388372E4,1.2786892E4,1.5034086E3,2.331985E3,1.0056387E4,1.2628249E4,1.5864258E2,6.2365283E2,8.797558E2,9.9189545E2,1.3400896E3,1.4070852E3,8.649302E3,2.440158E3,1.0188091E4,3.092234E1,1.2772023E2,1.9385294E2,4.2979987E2,2.2433043E1,8.5732275E2,3.100607E2,6.818348E2,3.6258777E2,9.7750183E2,4.1652286E2,9.905624E2,1.0025983E3,7.6467036E3],"tree_param":{"num_deleted":"0","num_feature":"15","num_nodes":"31","size_leaf_vector":"1"}},{"base_weights":[1.8793114E-3,9.631682E-1,-1.3247802E0,1.4349657E0,-2.892131E-1,2.9103774E-1,-1.49707E0,1.4734408E0,-1.4909301E0,-1.1937413E0,7.5000757E-1,9.0079254E-1,-1.3551824E0,-1.0632308E0,-1.6077107E0,8.768356E-2,2.42175E-2,-9.462187E-2,-1.04121845E-2,-8.562803E-2,-1.810777E-2,-3.9005257E-2,8.2837075E-2,5.8624774E-2,-7.51248E-2,-3.9519243E-2,-9.5637605E-2,3.9005965E-2,-8.230525E-2,-2.7617186E-2,-9.324272E-2],"categories":[],"categories_nodes":[],"categories_segments":[],"categories_sizes":[],"default_left":[0,0,0,0,0,0,0,0,0,0,0,0,0,0,0,0,0,0,0,0,0,0,0,0,0,0,0,0,0,0,0],"id":4,"left_children":[1,3,5,7,9,11,13,15,17,19,21,23,25,27,29,-1,-1,-1,-1,-1,-1,-1,-1,-1,-1,-1,-1,-1,-1,-1,-1],"loss_changes":[3.365538E4,9.045134E3,3.0897773E3,1.2587988E3,3.941703E3,1.077811E3,4.7149805E2,5.1691797E2,2.4617126E1,5.665657E2,1.9082206E3,2.0158038E2,5.1477905E1,1.2943826E3,5.8533203E1,0E0,0E0,0E0,0E0,0E0,0E0,0E0,0E0,0E0,0E0,0E0,0E0,0E0,0E0,0E0,0E0],"parents":[2147483647,0,0,1,1,2,2,3,3,4,4,5,5,6,6,7,7,8,8,9,9,10,10,11,11,12,12,13,13,14,14],"right_children":[2,4,6,8,10,12,14,16,18,20,22,24,26,28,30,-1,-1,-1,-1,-1,-1,-1,-1,-1,-1,-1,-1,-1,-1,-1,-1],"split_conditions":[7.12593E-2,4.014907E-1,-3.538983E-1,1.1937164E0,3.83489E-1,9.2242646E-1,5.11563E-1,4.589275E-1,7.4360293E-1,7.526941E-1,-7.092079E-1,1.0544091E0,1.2095273E0,-2.1623363E-1,-1.104293E0,8.768356E-2,2.42175E-2,-9.462187E-2,-1.04121845E-2,-8.562803E-2,-1.810777E-2,-3.9005257E-2,8.2837075E-2,5.8624774E-2,-7.51248E-2,-3.9519243E-2,-9.5637605E-2,3.9005965E-2,-8.230525E-2,-2.7617186E-2,-9.324272E-2],"split_indices":[12,9,9,0,6,12,12,2,6,5,8,0,12,13,13,0,0,0,0,0,0,0,0,0,0,0,0,0,0,0,0],"split_type":[0,0,0,0,0,0,0,0,0,0,0,0,0,0,0,0,0,0,0,0,0,0,0,0,0,0,0,0,0,0,0],"sum_hessian":[2.6383818E4,1.5299721E4,1.1084099E4,1.1113631E4,4.18609E3,1.0669753E3,1.0017123E4,1.09715E4,1.4213174E2,2.2385442E3,1.9475455E3,7.8031915E2,2.8665622E2,2.0453231E3,7.9718E3,1.0518549E4,4.5295096E2,1.2600868E2,1.612306E1,1.6819683E3,5.565759E2,6.312034E2,1.316342E3,7.440685E2,3.6250637E1,9.365666E1,1.9299956E2,3.514161E2,1.693907E3,5.2563633E1,7.9192363E3],"tree_param":{"num_deleted":"0","num_feature":"15","num_nodes":"31","size_leaf_vector":"1"}},{"base_weights":[-4.5108516E-3,8.945686E-1,-1.3056486E0,1.3392891E0,-3.7133428E-1,3.43238E-1,-1.4442264E0,1.3866131E0,-1.1674646E0,-1.1593237E0,6.832754E-1,9.049437E-1,-1.3445523E0,-8.7701625E-1,-1.520954E0,8.353086E-2,2.5697524E-2,-9.451542E-2,-1.7703542E-2,-7.885357E-2,-3.24857E-2,-5.549806E-2,6.410689E-2,5.9238046E-2,-7.383924E-2,-1.8173967E-3,-8.597553E-2,4.127589E-2,-8.247595E-2,-7.101666E-2,-9.053837E-2],"categories":[],"categories_nodes":[],"categories_segments":[],"categories_sizes":[],"default_left":[0,0,0,0,0,0,0,0,0,0,0,0,0,0,0,0,0,0,0,0,0,0,0,0,0,0,0,0,0,0,0],"id":5,"left_children":[1,3,5,7,9,11,13,15,17,19,21,23,25,27,29,-1,-1,-1,-1,-1,-1,-1,-1,-1,-1,-1,-1,-1,-1,-1,-1],"loss_changes":[3.0308348E4,8.628044E3,2.4224375E3,1.350875E3,3.314725E3,7.834254E2,4.1726367E2,6.2418164E2,8.0985535E1,2.7571436E2,1.2011487E3,1.6778766E2,3.678714E1,1.0347808E3,1.07296875E2,0E0,0E0,0E0,0E0,0E0,0E0,0E0,0E0,0E0,0E0,0E0,0E0,0E0,0E0,0E0,0E0],"parents":[2147483647,0,0,1,1,2,2,3,3,4,4,5,5,6,6,7,7,8,8,9,9,10,10,11,11,12,12,13,13,14,14],"right_children":[2,4,6,8,10,12,14,16,18,20,22,24,26,28,30,-1,-1,-1,-1,-1,-1,-1,-1,-1,-1,-1,-1,-1,-1,-1,-1],"split_conditions":[3.894291E-1,4.6177867E-1,-4.930891E-1,1.1353581E0,5.320305E-1,9.126021E-1,-4.565397E-1,3.8508043E-1,-1.5378642E-1,-1.4285816E-1,-1.4853053E-1,1.0544091E0,-2.3523114E0,7.475458E-1,5.9151715E-1,8.353086E-2,2.5697524E-2,-9.451542E-2,-1.7703542E-2,-7.885357E-2,-3.24857E-2,-5.549806E-2,6.410689E-2,5.9238046E-2,-7.383924E-2,-1.8173967E-3,-8.597553E-2,4.127589E-2,-8.247595E-2,-7.101666E-2,-9.053837E-2],"split_indices":[14,9,9,0,6,14,13,1,6,6,0,0,13,14,14,0,0,0,0,0,0,0,0,0,0,0,0,0,0,0,0],"split_type":[0,0,0,0,0,0,0,0,0,0,0,0,0,0,0,0,0,0,0,0,0,0,0,0,0,0,0,0,0,0,0],"sum_hessian":[2.5901246E4,1.5317139E4,1.0584106E4,1.1335738E4,3.9814004E3,8.193872E2,9.76472E3,1.1127719E4,2.0801947E2,2.2793274E3,1.7020729E3,6.16575E2,2.0281226E2,1.170648E3,8.594071E3,1.0457841E4,6.6987787E2,1.3160567E2,7.641381E1,1.6887932E3,5.905343E2,3.4929318E2,1.3527797E3,5.865037E2,3.0071266E1,2.1468424E1,1.8134383E2,3.0023828E2,8.7040967E2,1.2124067E3,7.3816646E3],"tree_param":{"num_deleted":"0","num_feature":"15","num_nodes":"31","size_leaf_vector":"1"}},{"base_weights":[-1.1437482E-3,1.1081604E0,-1.2866005E0,1.3744714E0,-9.195823E-1,-4.2032737E-1,-1.4442782E0,1.4779077E0,9.602421E-1,-1.685113E-1,-1.42166E0,5.207185E-1,-1.1868454E0,-1.0502346E0,-1.5029591E0,8.636729E-2,6.27793E-2,7.237482E-2,1.3692519E-2,4.4338096E-2,-3.7793603E-2,-3.556867E-2,-8.733129E-2,-2.2536783E-2,5.5934474E-2,-3.7581556E-2,-8.412936E-2,-1.5293035E-2,-7.951316E-2,-7.361566E-2,-8.787386E-2],"categories":[],"categories_nodes":[],"categories_segments":[],"categories_sizes":[],"default_left":[0,0,0,0,0,0,0,0,0,0,0,0,0,0,0,0,0,0,0,0,0,0,0,0,0,0,0,0,0,0,0],"id":6,"left_children":[1,3,5,7,9,11,13,15,17,19,21,23,25,27,29,-1,-1,-1,-1,-1,-1,-1,-1,-1,-1,-1,-1,-1,-1,-1,-1],"loss_changes":[3.6314355E4,7.3863867E3,1.6067324E3,5.0958203E2,5.958607E2,1.3177955E3,2.2183398E2,5.826367E1,5.1140308E2,2.9334592E2,6.3388306E1,3.3662305E2,1.3957056E2,3.3206335E2,2.6917969E1,0E0,0E0,0E0,0E0,0E0,0E0,0E0,0E0,0E0,0E0,0E0,0E0,0E0,0E0,0E0,0E0],"parents":[2147483647,0,0,1,1,2,2,3,3,4,4,5,5,6,6,7,7,8,8,9,9,10,10,11,11,12,12,13,13,14,14],"right_children":[2,4,6,8,10,12,14,16,18,20,22,24,26,28,30,-1,-1,-1,-1,-1,-1,-1,-1,-1,-1,-1,-1,-1,-1,-1,-1],"split_conditions":[1.10598065E-1,6.03458E-1,-2.0732528E-1,-3.6863405E-1,8.7723476E-1,6.39558E-1,4.0635598E-1,4.2567706E-1,-1.953362E-3,-7.3846745E-1,-9.409077E-1,-3.2540345E-1,9.639639E-1,4.2567706E-1,1.0745535E-1,8.636729E-2,6.27793E-2,7.237482E-2,1.3692519E-2,4.4338096E-2,-3.7793603E-2,-3.556867E-2,-8.733129E-2,-2.2536783E-2,5.5934474E-2,-3.7581556E-2,-8.412936E-2,-1.5293035E-2,-7.951316E-2,-7.361566E-2,-8.787386E-2],"split_indices":[4,14,14,4,14,4,4,14,14,4,4,6,4,14,14,0,0,0,0,0,0,0,0,0,0,0,0,0,0,0,0],"split_type":[0,0,0,0,0,0,0,0,0,0,0,0,0,0,0,0,0,0,0,0,0,0,0,0,0,0,0,0,0,0,0],"sum_hessian":[2.54597E4,1.3665883E4,1.1793816E4,1.2081012E4,1.5848706E3,1.8193906E3,9.974426E3,9.657475E3,2.4235376E3,6.378989E2,9.469717E2,8.1637E2,1.0030207E3,1.3041633E3,8.670263E3,9.223125E3,4.343496E2,1.7212562E3,7.022813E2,2.1630714E2,4.215918E2,1.0011438E2,8.468573E2,2.6821036E2,5.481596E2,3.4169785E2,6.613228E2,3.862711E2,9.178923E2,6.86302E2,7.9839604E3],"tree_param":{"num_deleted":"0","num_feature":"15","num_nodes":"31","size_leaf_vector":"1"}},{"base_weights":[2.2269657E-3,8.419285E-1,-1.2052082E0,1.1519884E0,-7.80974E-1,3.8621362E-2,-1.3761613E0,1.287859E0,-5.2760875E-1,-2.7875283E-1,-1.3001975E0,9.439041E-1,-1.194521E0,-1.0011344E0,-1.4636028E0,7.651297E-2,-8.0632925E-2,-5.381916E-2,1.39288725E-2,-4.7604837E-2,3.178716E-2,-6.275553E-2,-8.4022224E-2,6.008189E-2,-7.357971E-2,-1.9346902E-2,-8.3525345E-2,-1.0512326E-3,-7.985337E-2,-7.832162E-2,-8.608257E-2],"categories":[],"categories_nodes":[],"categories_segments":[],"categories_sizes":[],"default_left":[0,0,0,0,0,0,0,0,0,0,0,0,0,0,0,0,0,0,0,0,0,0,0,0,0,0,0,0,0,0,0],"id":7,"left_children":[1,3,5,7,9,11,13,15,17,19,21,23,25,27,29,-1,-1,-1,-1,-1,-1,-1,-1,-1,-1,-1,-1,-1,-1,-1,-1],"loss_changes":[2.5303752E4,7.411175E3,2.1787334E3,2.82442E3,6.1264905E2,1.3867522E3,2.8678125E2,1.1492266E3,2.8991507E2,5.479212E2,2.9450684E1,1.5779834E2,1.096629E2,6.417229E2,1.0484375E1,0E0,0E0,0E0,0E0,0E0,0E0,0E0,0E0,0E0,0E0,0E0,0E0,0E0,0E0,0E0,0E0],"parents":[2147483647,0,0,1,1,2,2,3,3,4,4,5,5,6,6,7,7,8,8,9,9,10,10,11,11,12,12,13,13,14,14],"right_children":[2,4,6,8,10,12,14,16,18,20,22,24,26,28,30,-1,-1,-1,-1,-1,-1,-1,-1,-1,-1,-1,-1,-1,-1,-1,-1],"split_conditions":[3.782415E-1,4.8437616E-1,-7.8212434E-1,7.785499E-1,1.126636E0,8.584503E-1,6.3755774E-1,1.1937164E0,5.1953018E-2,6.476308E-2,1.5311036E0,1.1146499E0,9.908365E-1,6.282812E-2,8.2850075E-1,7.651297E-2,-8.0632925E-2,-5.381916E-2,1.39288725E-2,-4.7604837E-2,3.178716E-2,-6.275553E-2,-8.4022224E-2,6.008189E-2,-7.357971E-2,-1.9346902E-2,-8.3525345E-2,-1.0512326E-3,-7.985337E-2,-7.832162E-2,-8.608257E-2],"split_indices":[14,3,13,2,3,14,14,0,5,5,3,0,14,13,14,0,0,0,0,0,0,0,0,0,0,0,0,0,0,0,0],"split_type":[0,0,0,0,0,0,0,0,0,0,0,0,0,0,0,0,0,0,0,0,0,0,0,0,0,0,0,0,0,0,0],"sum_hessian":[2.4951035E4,1.4717821E4,1.0233215E4,1.2358531E4,2.3592905E3,1.2358291E3,8.997386E3,1.1435112E4,9.234191E2,1.203275E3,1.1560155E3,7.1376495E2,5.220641E2,1.7121052E3,7.2852803E3,1.1280866E4,1.5424542E2,6.0583746E2,3.1758167E2,7.267577E2,4.765173E2,5.014219E2,6.5459357E2,6.862818E2,2.7483112E1,1.2140785E2,4.0065625E2,4.810035E2,1.2311018E3,1.5202092E3,5.765071E3],"tree_param":{"num_deleted":"0","num_feature":"15","num_nodes":"31","size_leaf_vector":"1"}},{"base_weights":[5.8525027E-5,7.8302574E-1,-1.2060299E0,1.1026366E0,-7.192942E-1,1.7296146E-1,-1.3216431E0,1.2493256E0,-7.081358E-1,-1.5053035E-1,-1.1917974E0,9.0043646E-1,-1.1825117E0,-9.0910417E-1,-1.4094889E0,7.6820605E-2,4.6886723E-2,-6.1504357E-3,-6.977168E-2,-4.042988E-2,3.4982003E-2,-5.1962916E-2,-7.897777E-2,6.996688E-2,2.4929954E-2,-2.1478442E-2,-7.729697E-2,2.0150103E-2,-7.202316E-2,-6.994362E-2,-8.301656E-2],"categories":[],"categories_nodes":[],"categories_segments":[],"categories_sizes":[],"default_left":[0,0,0,0,0,0,0,0,0,0,0,0,0,0,0,0,0,0,0,0,0,0,0,0,0,0,0,0,0,0,0],"id":8,"left_children":[1,3,5,7,9,11,13,15,17,19,21,23,25,27,29,-1,-1,-1,-1,-1,-1,-1,-1,-1,-1,-1,-1,-1,-1,-1,-1],"loss_changes":[2.3038979E4,7.106961E3,1.5334229E3,3.244665E3,6.953174E2,7.3763873E2,3.1358887E2,3.9370508E2,2.7329562E2,4.9356E2,6.543848E1,6.7022095E1,2.894165E1,6.699199E2,3.1264648E1,0E0,0E0,0E0,0E0,0E0,0E0,0E0,0E0,0E0,0E0,0E0,0E0,0E0,0E0,0E0,0E0],"parents":[2147483647,0,0,1,1,2,2,3,3,4,4,5,5,6,6,7,7,8,8,9,9,10,10,11,11,12,12,13,13,14,14],"right_children":[2,4,6,8,10,12,14,16,18,20,22,24,26,28,30,-1,-1,-1,-1,-1,-1,-1,-1,-1,-1,-1,-1,-1,-1,-1,-1],"split_conditions":[1.6931994E-1,4.3121856E-1,-1.0529006E0,8.1843585E-1,9.8127526E-1,1.0296594E0,5.11563E-1,3.954303E-2,1.2550381E0,1.2915179E-2,1.3662485E0,5.2882224E-1,1.2095273E0,-2.3786913E-1,-4.1780412E-1,7.6820605E-2,4.6886723E-2,-6.1504357E-3,-6.977168E-2,-4.042988E-2,3.4982003E-2,-5.1962916E-2,-7.897777E-2,6.996688E-2,2.4929954E-2,-2.1478442E-2,-7.729697E-2,2.0150103E-2,-7.202316E-2,-6.994362E-2,-8.301656E-2],"split_indices":[12,3,13,1,3,12,12,1,1,5,3,12,12,13,13,0,0,0,0,0,0,0,0,0,0,0,0,0,0,0,0],"split_type":[0,0,0,0,0,0,0,0,0,0,0,0,0,0,0,0,0,0,0,0,0,0,0,0,0,0,0,0,0,0,0],"sum_hessian":[2.439118E4,1.4791314E4,9.599866E3,1.2198068E4,2.5932463E3,7.415115E2,8.8583545E3,1.1285645E4,9.124235E2,1.1801124E3,1.4131339E3,4.8394516E2,2.575663E2,1.5646239E3,7.2937305E3,9.5118125E3,1.7738314E3,4.1734363E2,4.9507993E2,6.8467377E2,4.954387E2,5.422397E2,8.708942E2,2.8580862E2,1.9813654E2,4.489374E1,2.1267259E2,3.3060892E2,1.234015E3,9.34091E2,6.3596396E3],"tree_param":{"num_deleted":"0","num_feature":"15","num_nodes":"31","size_leaf_vector":"1"}},{"base_weights":[1.2925811E-4,7.843342E-1,-1.1229899E0,1.0579531E0,-7.879592E-1,3.3829415E-3,-1.2844803E0,1.2105995E0,-6.0764086E-1,-2.9940346E-1,-1.2062672E0,6.5189254E-1,-1.0528753E0,-1.3665067E0,-9.146451E-1,4.192078E-2,7.439463E-2,-6.0099203E-2,1.665013E-2,-5.176118E-2,2.8291047E-2,-5.9636462E-2,-8.035063E-2,-5.6092725E-3,6.017557E-2,-7.227089E-2,-2.0217516E-3,-7.1629815E-2,-8.161832E-2,-7.257554E-2,4.896085E-2],"categories":[],"categories_nodes":[],"categories_segments":[],"categories_sizes":[],"default_left":[0,0,0,0,0,0,0,0,0,0,0,0,0,0,0,0,0,0,0,0,0,0,0,0,0,0,0,0,0,0,0],"id":9,"left_children":[1,3,5,7,9,11,13,15,17,19,21,23,25,27,29,-1,-1,-1,-1,-1,-1,-1,-1,-1,-1,-1,-1,-1,-1,-1,-1],"loss_changes":[2.1002227E4,6.044374E3,1.7851104E3,3.0449092E3,4.2229224E2,8.4534235E2,2.5274902E2,4.0728027E2,3.924473E2,4.5760178E2,2.7744873E1,2.2557745E2,9.290265E1,3.1891602E1,9.5120703E2,0E0,0E0,0E0,0E0,0E0,0E0,0E0,0E0,0E0,0E0,0E0,0E0,0E0,0E0,0E0,0E0],"parents":[2147483647,0,0,1,1,2,2,3,3,4,4,5,5,6,6,7,7,8,8,9,9,10,10,11,11,12,12,13,13,14,14],"right_children":[2,4,6,8,10,12,14,16,18,20,22,24,26,28,30,-1,-1,-1,-1,-1,-1,-1,-1,-1,-1,-1,-1,-1,-1,-1,-1],"split_conditions":[8.773267E-2,5.7401043E-1,-1.8363553E-1,7.639195E-1,1.126636E0,7.722693E-1,7.145461E-1,-8.015482E-1,1.8201101E-1,-7.948636E-3,1.6278327E0,-5.017021E-1,3.0117604E-1,6.9754845E-1,-3.7166864E-2,4.192078E-2,7.439463E-2,-6.0099203E-2,1.665013E-2,-5.176118E-2,2.8291047E-2,-5.9636462E-2,-8.035063E-2,-5.6092725E-3,6.017557E-2,-7.227089E-2,-2.0217516E-3,-7.1629815E-2,-8.161832E-2,-7.257554E-2,4.896085E-2],"split_indices":[12,3,9,1,3,12,6,6,6,6,3,6,6,12,8,0,0,0,0,0,0,0,0,0,0,0,0,0,0,0,0],"split_type":[0,0,0,0,0,0,0,0,0,0,0,0,0,0,0,0,0,0,0,0,0,0,0,0,0,0,0,0,0,0,0],"sum_hessian":[2.383955E4,1.4039146E4,9.800404E3,1.1959825E4,2.079321E3,1.2282256E3,8.572179E3,1.0957377E4,1.0024477E3,9.63329E2,1.1159921E3,7.626187E2,4.656069E2,7.0055737E3,1.5666049E3,1.5231625E3,9.434215E3,6.764444E2,3.260033E2,5.4924927E2,4.1407965E2,5.916856E2,5.243065E2,2.6084937E2,5.0176932E2,3.8774063E2,7.786628E1,1.936444E3,5.06913E3,1.3133422E3,2.5326273E2],"tree_param":{"num_deleted":"0","num_feature":"15","num_nodes":"31","size_leaf_vector":"1"}},{"base_weights":[-5.2754437E-3,7.217947E-1,-1.1363593E0,1.1639866E0,-2.3660928E-1,-5.3786725E-2,-1.2833983E0,1.2101221E0,-8.9601284E-1,-9.95393E-1,6.006263E-1,7.0397115E-1,-1.2036344E0,-9.501489E-1,-1.3482198E0,4.523424E-2,7.674654E-2,-8.585804E-2,-2.7789567E-3,-7.154406E-2,-1.162946E-2,-5.16783E-2,5.6816593E-2,-1.1214326E-2,6.0033936E-2,-2.5301648E-2,-7.60053E-2,-6.3002426E-3,-7.4178554E-2,-6.9083884E-2,-7.933768E-2],"categories":[],"categories_nodes":[],"categories_segments":[],"categories_sizes":[],"default_left":[0,0,0,0,0,0,0,0,0,0,0,0,0,0,0,0,0,0,0,0,0,0,0,0,0,0,0,0,0,0,0],"id":10,"left_children":[1,3,5,7,9,11,13,15,17,19,21,23,25,27,29,-1,-1,-1,-1,-1,-1,-1,-1,-1,-1,-1,-1,-1,-1,-1,-1],"loss_changes":[1.9138328E4,6.0052427E3,1.4474492E3,9.254033E2,2.8446926E3,9.56401E2,1.6563672E2,4.7519727E2,1.0461461E2,4.5154565E2,1.2232427E3,2.0105789E2,3.3226196E1,3.6898975E2,1.7098633E1,0E0,0E0,0E0,0E0,0E0,0E0,0E0,0E0,0E0,0E0,0E0,0E0,0E0,0E0,0E0,0E0],"parents":[2147483647,0,0,1,1,2,2,3,3,4,4,5,5,6,6,7,7,8,8,9,9,10,10,11,11,12,12,13,13,14,14],"right_children":[2,4,6,8,10,12,14,16,18,20,22,24,26,28,30,-1,-1,-1,-1,-1,-1,-1,-1,-1,-1,-1,-1,-1,-1,-1,-1],"split_conditions":[1.6931994E-1,3.4009248E-1,-7.8212434E-1,1.0732344E0,3.4194782E-1,1.0115541E0,4.9140483E-1,-1.4853053E-1,-1.4285816E-1,8.2839113E-1,-1.4853053E-1,-8.0759265E-2,1.1551394E0,6.282812E-2,7.356015E-1,4.523424E-2,7.674654E-2,-8.585804E-2,-2.7789567E-3,-7.154406E-2,-1.162946E-2,-5.16783E-2,5.6816593E-2,-1.1214326E-2,6.0033936E-2,-2.5301648E-2,-7.60053E-2,-6.3002426E-3,-7.4178554E-2,-6.9083884E-2,-7.933768E-2],"split_indices":[12,9,13,0,6,12,12,0,6,5,0,0,12,13,12,0,0,0,0,0,0,0,0,0,0,0,0,0,0,0,0],"split_type":[0,0,0,0,0,0,0,0,0,0,0,0,0,0,0,0,0,0,0,0,0,0,0,0,0,0,0,0,0,0,0],"sum_hessian":[2.3264568E4,1.41614375E4,9.10313E3,9.69095E3,4.4704873E3,1.0902621E3,8.012868E3,9.480686E3,2.1026381E2,2.345671E3,2.1248167E3,6.5721765E2,4.3304443E2,1.3168793E3,6.695989E3,2.075602E3,7.405084E3,1.2144175E2,8.882206E1,1.7920962E3,5.5357465E2,4.3184833E2,1.6929683E3,1.7805551E2,4.7916214E2,5.9266026E1,3.737784E2,3.771919E2,9.3968744E2,1.0034037E3,5.692585E3],"tree_param":{"num_deleted":"0","num_feature":"15","num_nodes":"31","size_leaf_vector":"1"}},{"base_weights":[-2.3601338E-4,9.494E-1,-1.1107382E0,1.158902E0,-9.416668E-1,-4.9266955E-1,-1.2999259E0,1.1955992E0,-1.224689E0,3.0481738E-1,-1.0963765E0,2.350731E-1,-1.1458106E0,-1.0264847E0,-1.336732E0,4.3451983E-2,7.5574465E-2,-2.0191293E-2,-8.934084E-2,4.695732E-2,-3.4713354E-2,-3.7057653E-2,-7.6183245E-2,-4.117525E-2,4.065453E-2,-4.405182E-2,-7.6947995E-2,-3.0262658E-2,-7.273865E-2,-7.1051456E-2,-7.8515634E-2],"categories":[],"categories_nodes":[],"categories_segments":[],"categories_sizes":[],"default_left":[0,0,0,0,0,0,0,0,0,0,0,0,0,0,0,0,0,0,0,0,0,0,0,0,0,0,0,0,0,0,0],"id":11,"left_children":[1,3,5,7,9,11,13,15,17,19,21,23,25,27,29,-1,-1,-1,-1,-1,-1,-1,-1,-1,-1,-1,-1,-1,-1,-1,-1],"loss_changes":[2.382984E4,4.8293643E3,1.2133623E3,9.6416113E2,2.3671948E2,1.165946E3,7.2302734E1,5.3581934E2,4.2745758E1,6.451365E1,1.0423059E2,5.174196E2,8.6052734E1,1.08308044E2,7.9072266E0,0E0,0E0,0E0,0E0,0E0,0E0,0E0,0E0,0E0,0E0,0E0,0E0,0E0,0E0,0E0,0E0],"parents":[2147483647,0,0,1,1,2,2,3,3,4,4,5,5,6,6,7,7,8,8,9,9,10,10,11,11,12,12,13,13,14,14],"right_children":[2,4,6,8,10,12,14,16,18,20,22,24,26,28,30,-1,-1,-1,-1,-1,-1,-1,-1,-1,-1,-1,-1,-1,-1,-1,-1],"split_conditions":[1.10598065E-1,6.0385704E-1,-2.6422313E-1,1.1730087E0,-1.0432415E0,6.9640183E-1,3.892783E-1,-1.4853053E-1,1.2746654E0,1.1019585E0,1.0115541E0,-2.0518243E-2,9.977676E-1,4.1704214E-1,6.9640183E-1,4.3451983E-2,7.5574465E-2,-2.0191293E-2,-8.934084E-2,4.695732E-2,-3.4713354E-2,-3.7057653E-2,-7.6183245E-2,-4.117525E-2,4.065453E-2,-4.405182E-2,-7.6947995E-2,-3.0262658E-2,-7.273865E-2,-7.1051456E-2,-7.8515634E-2],"split_indices":[4,12,12,0,4,4,4,0,0,12,12,0,4,12,4,0,0,0,0,0,0,0,0,0,0,0,0,0,0,0,0],"split_type":[0,0,0,0,0,0,0,0,0,0,0,0,0,0,0,0,0,0,0,0,0,0,0,0,0,0,0,0,0,0,0],"sum_hessian":[2.2589777E4,1.2176426E4,1.0413351E4,1.0963837E4,1.2125887E3,2.4450347E3,7.968316E3,1.0799824E4,1.6401303E2,1.3251878E2,1.08007E3,1.1564597E3,1.288575E3,9.613274E2,7.0069883E3,2.2060361E3,8.593788E3,4.723216E1,1.1678088E2,8.610306E1,4.6415733E1,3.6181067E2,7.1825934E2,3.8114963E2,7.7531006E2,4.305846E2,8.5799036E2,3.1016464E2,6.511628E2,1.2922665E3,5.7147217E3],"tree_param":{"num_deleted":"0","num_feature":"15","num_nodes":"31","size_leaf_vector":"1"}},{"base_weights":[-1.7649513E-3,8.974577E-1,-1.1055431E0,1.1420829E0,-7.111232E-1,-3.9611614E-1,-1.2529776E0,1.1753968E0,-1.1291101E0,-2.0026456E-1,-1.2076076E0,4.3369603E-1,-9.974083E-1,-9.922895E-1,-1.3097228E0,4.399407E-2,7.4063E-2,2.9742884E-2,-7.774801E-2,-5.5430636E-2,1.9746961E-2,1.4174752E-2,-7.22481E-2,3.7158545E-2,-9.376007E-2,-3.025592E-2,-7.1946844E-2,-3.417075E-2,-7.3121235E-2,-7.029502E-2,-7.7077955E-2],"categories":[],"categories_nodes":[],"categories_segments":[],"categories_sizes":[],"default_left":[0,0,0,0,0,0,0,0,0,0,0,0,0,0,0,0,0,0,0,0,0,0,0,0,0,0,0,0,0,0,0],"id":12,"left_children":[1,3,5,7,9,11,13,15,17,19,21,23,25,27,29,-1,-1,-1,-1,-1,-1,-1,-1,-1,-1,-1,-1,-1,-1,-1,-1],"loss_changes":[2.1868416E4,4.780618E3,1.0306436E3,8.0198047E2,4.039948E2,8.54748E2,1.1350781E2,4.5465625E2,5.833818E1,3.298437E2,5.3872803E1,3.126116E2,1.12151184E2,1.5750537E2,6.5390625E0,0E0,0E0,0E0,0E0,0E0,0E0,0E0,0E0,0E0,0E0,0E0,0E0,0E0,0E0,0E0,0E0],"parents":[2147483647,0,0,1,1,2,2,3,3,4,4,5,5,6,6,7,7,8,8,9,9,10,10,11,11,12,12,13,13,14,14],"right_children":[2,4,6,8,10,12,14,16,18,20,22,24,26,28,30,-1,-1,-1,-1,-1,-1,-1,-1,-1,-1,-1,-1,-1,-1,-1,-1],"split_conditions":[1.5810975E-1,5.7940495E-1,-1.632639E-1,1.1730087E0,9.2188424E-1,6.248888E-1,5.32793E-1,-1.4853053E-1,-9.8517114E-1,3.2192722E-2,-1.2924527E0,1.0167584E0,9.5337313E-1,6.3755774E-1,8.316057E-1,4.399407E-2,7.4063E-2,2.9742884E-2,-7.774801E-2,-5.5430636E-2,1.9746961E-2,1.4174752E-2,-7.22481E-2,3.7158545E-2,-9.376007E-2,-3.025592E-2,-7.1946844E-2,-3.417075E-2,-7.3121235E-2,-7.029502E-2,-7.7077955E-2],"split_indices":[4,14,14,0,14,4,4,0,4,0,4,0,4,14,4,0,0,0,0,0,0,0,0,0,0,0,0,0,0,0,0],"split_type":[0,0,0,0,0,0,0,0,0,0,0,0,0,0,0,0,0,0,0,0,0,0,0,0,0,0,0,0,0,0,0],"sum_hessian":[2.2025748E4,1.2137198E4,9.888551E3,1.0536679E4,1.6005195E3,1.7052256E3,8.183325E3,1.03865625E4,1.5011568E2,7.9255457E2,8.079649E2,7.158706E2,9.89355E2,1.4783668E3,6.7049585E3,2.1477039E3,8.238858E3,1.6234772E1,1.338809E2,3.30103E2,4.6245157E2,2.2152859E1,7.858121E2,6.5232574E2,6.3544865E1,3.461817E2,6.431733E2,6.070122E2,8.713547E2,1.4829877E3,5.2219707E3],"tree_param":{"num_deleted":"0","num_feature":"15","num_nodes":"31","size_leaf_vector":"1"}},{"base_weights":[-2.3168496E-4,7.374972E-1,-9.478723E-1,9.6843976E-1,-6.0863966E-1,1.1897077E-1,-1.1653198E0,1.0403551E0,-9.815684E-1,-1.0342822E0,-5.2165322E-2,8.247229E-1,-9.748251E-1,-8.1791514E-1,-1.2561945E0,2.8445339E-2,7.086438E-2,1.7687343E-2,-7.142427E-2,-7.24907E-2,-3.4331627E-2,-6.4088516E-2,3.6378298E-2,5.3001508E-2,-6.292023E-2,2.6731236E-2,-6.2152293E-2,-2.182614E-3,-7.001522E-2,-6.57944E-2,-7.507837E-2],"categories":[],"categories_nodes":[],"categories_segments":[],"categories_sizes":[],"default_left":[0,0,0,0,0,0,0,0,0,0,0,0,0,0,0,0,0,0,0,0,0,0,0,0,0,0,0,0,0,0,0],"id":13,"left_children":[1,3,5,7,9,11,13,15,17,19,21,23,25,27,29,-1,-1,-1,-1,-1,-1,-1,-1,-1,-1,-1,-1,-1,-1,-1,-1],"loss_changes":[1.4888784E4,3.7248638E3,2.1646895E3,1.4370527E3,4.1386475E2,1.2224795E3,2.3817285E2,1.0050908E3,1.2250833E2,9.140491E1,5.552878E2,1.7492676E2,9.314569E1,4.964713E2,2.3124023E1,0E0,0E0,0E0,0E0,0E0,0E0,0E0,0E0,0E0,0E0,0E0,0E0,0E0,0E0,0E0,0E0],"parents":[2147483647,0,0,1,1,2,2,3,3,4,4,5,5,6,6,7,7,8,8,9,9,10,10,11,11,12,12,13,13,14,14],"right_children":[2,4,6,8,10,12,14,16,18,20,22,24,26,28,30,-1,-1,-1,-1,-1,-1,-1,-1,-1,-1,-1,-1,-1,-1,-1,-1],"split_conditions":[-3.1023078E-2,6.2440425E-1,-6.453752E-1,1.0544091E0,-1.3077465E-1,8.284608E-1,3.9789787E-1,-2.0518243E-2,-1.9410662E-1,6.476308E-2,-7.578201E-1,1.0544091E0,-2.1467218E0,1.800485E-1,8.669038E-1,2.8445339E-2,7.086438E-2,1.7687343E-2,-7.142427E-2,-7.24907E-2,-3.4331627E-2,-6.4088516E-2,3.6378298E-2,5.3001508E-2,-6.292023E-2,2.6731236E-2,-6.2152293E-2,-2.182614E-3,-7.001522E-2,-6.57944E-2,-7.507837E-2],"split_indices":[12,1,13,0,6,12,12,0,13,5,8,0,13,13,12,0,0,0,0,0,0,0,0,0,0,0,0,0,0,0,0],"split_type":[0,0,0,0,0,0,0,0,0,0,0,0,0,0,0,0,0,0,0,0,0,0,0,0,0,0,0,0,0,0,0],"sum_hessian":[2.128991E4,1.1970355E4,9.319555E3,1.021915E4,1.7512048E3,1.577081E3,7.742473E3,9.85788E3,3.612704E2,9.891803E2,7.620246E2,9.5986163E2,6.172194E2,1.6155095E3,6.126964E3,2.513109E3,7.344771E3,5.875958E1,3.025108E2,6.519004E2,3.3727988E2,2.987607E2,4.6326385E2,9.176716E2,4.2190056E1,3.9019314E1,5.782001E2,5.451403E2,1.0703693E3,1.7119932E3,4.41497E3],"tree_param":{"num_deleted":"0","num_feature":"15","num_nodes":"31","size_leaf_vector":"1"}},{"base_weights":[-4.8614703E-3,8.7158537E-1,-6.727918E-1,9.43519E-1,-1.0123876E0,-1.0661855E0,4.945017E-2,3.597906E-1,1.1465125E0,-7.71414E-2,-2.9027763E-1,-1.1985402E0,-6.7453706E-1,-8.528422E-1,9.9497247E-1,5.021867E-2,-2.3946224E-2,3.132353E-2,7.065E-2,-7.208272E-2,2.4402127E-2,-4.854129E-2,-7.108729E-2,-6.5281354E-2,4.293501E-2,-6.655468E-2,-4.3538152E-4,-5.1426843E-2,7.076797E-2],"categories":[],"categories_nodes":[],"categories_segments":[],"categories_sizes":[],"default_left":[0,0,0,0,0,0,0,0,0,0,0,0,0,0,0,0,0,0,0,0,0,0,0,0,0,0,0,0,0],"id":14,"left_children":[1,3,5,7,9,11,13,15,17,-1,19,21,23,25,27,-1,-1,-1,-1,-1,-1,-1,-1,-1,-1,-1,-1,-1,-1],"loss_changes":[1.2178547E4,1.222335E3,3.356395E3,1.02362354E3,7.392789E1,3.9095703E2,3.5567234E3,8.878041E2,2.944248E2,0E0,7.688871E1,6.0168945E1,1.2588928E3,5.387201E2,8.8963306E2,0E0,0E0,0E0,0E0,0E0,0E0,0E0,0E0,0E0,0E0,0E0,0E0,0E0,0E0],"parents":[2147483647,0,0,1,1,2,2,3,3,4,4,5,5,6,6,7,7,8,8,10,10,11,11,12,12,13,13,14,14],"right_children":[2,4,6,8,10,12,14,16,18,-1,20,22,24,26,28,-1,-1,-1,-1,-1,-1,-1,-1,-1,-1,-1,-1,-1,-1],"split_conditions":[8.369613E-2,1.0732344E0,3.83489E-1,-1.730035E-1,-5.5557687E-2,5.092816E-1,-4.6568888E-1,-4.930891E-1,-7.573047E-1,-7.71414E-2,-6.260889E-1,2.4048963E-1,-1.3238317E-1,6.530449E-1,-1.730035E-1,5.021867E-2,-2.3946224E-2,3.132353E-2,7.065E-2,-7.208272E-2,2.4402127E-2,-4.854129E-2,-7.108729E-2,-6.5281354E-2,4.293501E-2,-6.655468E-2,-4.3538152E-4,-5.1426843E-2,7.076797E-2],"split_indices":[9,0,6,0,6,5,8,9,6,0,8,9,7,5,0,0,0,0,0,0,0,0,0,0,0,0,0,0,0],"split_type":[0,0,0,0,0,0,0,0,0,0,0,0,0,0,0,0,0,0,0,0,0,0,0,0,0,0,0,0,0],"sum_hessian":[2.0797404E4,8.993349E3,1.1804055E4,8.664924E3,3.2842505E2,7.641964E3,4.1620913E3,2.2399492E3,6.4249746E3,2.2348238E2,1.0494268E2,5.7038853E3,1.9380782E3,2.1291348E3,2.0329563E3,1.3515334E3,8.8841565E2,7.318709E2,5.6931035E3,4.4546547E1,6.039613E1,4.8709592E2,5.2167896E3,1.4677501E3,4.7032822E2,1.569594E3,5.595408E2,2.1983754E2,1.8131188E3],"tree_param":{"num_deleted":"0","num_feature":"15","num_nodes":"29","size_leaf_vector":"1"}},{"base_weights":[5.571986E-3,8.837513E-1,-9.7646296E-1,1.0901271E0,-6.357619E-1,-3.5639375E-1,-1.1927406E0,1.1901659E0,6.8529797E-1,-1.5254572E-1,-1.1242728E0,2.2901778E-1,-1.0898343E0,-9.189182E-1,-1.2373791E0,7.107057E-2,5.6148425E-2,1.9831038E-3,5.7223223E-2,-3.9531194E-2,2.5533965E-2,-1.9304821E-2,-6.9687344E-2,-3.262369E-2,3.698507E-2,-4.2671837E-2,-7.124697E-2,-3.278145E-2,-6.9736764E-2,-6.4240955E-2,-7.274174E-2],"categories":[],"categories_nodes":[],"categories_segments":[],"categories_sizes":[],"default_left":[0,0,0,0,0,0,0,0,0,0,0,0,0,0,0,0,0,0,0,0,0,0,0,0,0,0,0,0,0,0,0],"id":15,"left_children":[1,3,5,7,9,11,13,15,17,19,21,23,25,27,29,-1,-1,-1,-1,-1,-1,-1,-1,-1,-1,-1,-1,-1,-1,-1,-1],"loss_changes":[1.7492504E4,3.36113E3,1.2804443E3,3.765381E2,3.0020172E2,1.0679434E3,7.988379E1,5.9789062E1,3.724336E2,2.0696027E2,3.793878E1,4.529559E2,4.9937622E1,9.784967E1,8.982422E0,0E0,0E0,0E0,0E0,0E0,0E0,0E0,0E0,0E0,0E0,0E0,0E0,0E0,0E0,0E0,0E0],"parents":[2147483647,0,0,1,1,2,2,3,3,4,4,5,5,6,6,7,7,8,8,9,9,10,10,11,11,12,12,13,13,14,14],"right_children":[2,4,6,8,10,12,14,16,18,20,22,24,26,28,30,-1,-1,-1,-1,-1,-1,-1,-1,-1,-1,-1,-1,-1,-1,-1,-1],"split_conditions":[6.082148E-2,4.360852E-1,-2.526315E-1,-3.6863405E-1,1.0115541E0,7.651088E-1,3.892783E-1,-1.9132431E-1,-1.4285816E-1,5.51043E-3,-9.9657923E-1,-3.958332E-1,1.0087727E0,7.356015E-1,6.5384525E-1,7.107057E-2,5.6148425E-2,1.9831038E-3,5.7223223E-2,-3.9531194E-2,2.5533965E-2,-1.9304821E-2,-6.9687344E-2,-3.262369E-2,3.698507E-2,-4.2671837E-2,-7.124697E-2,-3.278145E-2,-6.9736764E-2,-6.4240955E-2,-7.274174E-2],"split_indices":[4,12,12,4,12,4,4,12,6,6,4,6,4,12,4,0,0,0,0,0,0,0,0,0,0,0,0,0,0,0,0],"split_type":[0,0,0,0,0,0,0,0,0,0,0,0,0,0,0,0,0,0,0,0,0,0,0,0,0,0,0,0,0,0,0],"sum_hessian":[2.0276918E4,1.0705425E4,9.571493E3,9.426957E3,1.2784675E3,2.4791472E3,7.092346E3,7.551025E3,1.8759325E3,6.4637555E2,6.32092E2,1.3789109E3,1.1002363E3,1.00867834E3,6.083668E3,6.34413E3,1.2068947E3,6.021518E2,1.2737806E3,3.4215292E2,3.0422263E2,6.3058727E1,5.690332E2,4.690982E2,9.098127E2,3.2909073E2,7.711456E2,4.6186694E2,5.4681146E2,9.6095404E2,5.122714E3],"tree_param":{"num_deleted":"0","num_feature":"15","num_nodes":"31","size_leaf_vector":"1"}},{"base_weights":[8.710785E-4,8.9294E-1,-9.158961E-1,1.059167E0,-7.559351E-1,-2.7622485E-1,-1.157354E0,1.1449897E0,6.20172E-1,1.4468047E-1,-9.5111316E-1,3.4482655E-1,-9.789935E-1,-8.874062E-1,-1.221407E0,7.000592E-2,5.2564368E-2,-6.5647885E-3,5.056184E-2,3.1392977E-2,-4.6791818E-2,-6.559127E-2,-2.6329387E-2,-1.7538989E-2,4.0911302E-2,-3.31466E-2,-6.844418E-2,-2.7999252E-2,-6.7064136E-2,-6.2340174E-2,-7.174152E-2],"categories":[],"categories_nodes":[],"categories_segments":[],"categories_sizes":[],"default_left":[0,0,0,0,0,0,0,0,0,0,0,0,0,0,0,0,0,0,0,0,0,0,0,0,0,0,0,0,0,0,0],"id":16,"left_children":[1,3,5,7,9,11,13,15,17,19,21,23,25,27,29,-1,-1,-1,-1,-1,-1,-1,-1,-1,-1,-1,-1,-1,-1,-1,-1],"loss_changes":[1.606954E4,2.7328994E3,1.4935186E3,3.3608398E2,1.6213422E2,1.1635582E3,1.1498242E2,1.1294141E2,2.807431E2,6.369542E1,6.486841E1,3.348755E2,9.973071E1,1.4635156E2,9.157227E0,0E0,0E0,0E0,0E0,0E0,0E0,0E0,0E0,0E0,0E0,0E0,0E0,0E0,0E0,0E0,0E0],"parents":[2147483647,0,0,1,1,2,2,3,3,4,4,5,5,6,6,7,7,8,8,9,9,10,10,11,11,12,12,13,13,14,14],"right_children":[2,4,6,8,10,12,14,16,18,20,22,24,26,28,30,-1,-1,-1,-1,-1,-1,-1,-1,-1,-1,-1,-1,-1,-1,-1,-1],"split_conditions":[-1.9003341E-2,6.222679E-1,-2.526315E-1,-1.1507458E-1,-9.409077E-1,6.5384525E-1,4.3823975E-1,-4.7474262E-1,-5.3514653E-1,1.2450162E0,4.3847585E-1,-2.5176436E-1,9.639639E-1,5.660526E-1,6.5384525E-1,7.000592E-2,5.2564368E-2,-6.5647885E-3,5.056184E-2,3.1392977E-2,-4.6791818E-2,-6.559127E-2,-2.6329387E-2,-1.7538989E-2,4.0911302E-2,-3.31466E-2,-6.844418E-2,-2.7999252E-2,-6.7064136E-2,-6.2340174E-2,-7.174152E-2],"split_indices":[4,12,12,12,4,4,4,4,6,12,6,6,4,12,4,0,0,0,0,0,0,0,0,0,0,0,0,0,0,0,0],"split_type":[0,0,0,0,0,0,0,0,0,0,0,0,0,0,0,0,0,0,0,0,0,0,0,0,0,0,0,0,0,0,0],"sum_hessian":[1.9642605E4,9.95623E3,9.686375E3,9.046304E3,9.099272E2,2.6579475E3,7.0284277E3,7.559786E3,1.4865171E3,1.6093665E2,7.4899054E2,1.410845E3,1.2471024E3,1.3616268E3,5.666801E3,5.8572544E3,1.7025321E3,3.829198E2,1.1035973E3,1.15572E2,4.5364655E1,5.401687E2,2.0882184E2,5.0569995E2,9.051451E2,4.2756216E2,8.195402E2,5.5738324E2,8.042436E2,7.6385345E2,4.9029473E3],"tree_param":{"num_deleted":"0","num_feature":"15","num_nodes":"31","size_leaf_vector":"1"}},{"base_weights":[1.962916E-3,6.3965976E-1,-9.032227E-1,9.015213E-1,-4.31674E-1,-4.248966E-1,-1.1367298E0,1.0330257E0,-3.0713233E-1,-8.7835395E-1,8.3616376E-2,4.4177245E-2,-1.0073392E0,-9.589427E-1,-6.9632955E-2,6.310801E-2,-2.4930818E-2,-5.279849E-2,8.23089E-3,-6.735094E-2,-2.3296488E-2,-5.0963566E-2,4.419351E-2,2.7768807E-2,-4.2690907E-2,-6.7692526E-2,-3.6670584E-2,-3.7199654E-2,-6.776755E-2],"categories":[],"categories_nodes":[],"categories_segments":[],"categories_sizes":[],"default_left":[0,0,0,0,0,0,0,0,0,0,0,0,0,0,0,0,0,0,0,0,0,0,0,0,0,0,0,0,0],"id":17,"left_children":[1,3,5,7,9,11,13,15,17,19,21,23,25,27,-1,-1,-1,-1,-1,-1,-1,-1,-1,-1,-1,-1,-1,-1,-1],"loss_changes":[1.0967001E4,3.1293945E3,8.731914E2,1.4262764E3,5.0562955E2,7.0722705E2,5.7948242E1,7.118379E2,2.4203851E2,1.5698895E2,6.7324365E2,4.9106027E2,6.582324E1,9.62041E1,0E0,0E0,0E0,0E0,0E0,0E0,0E0,0E0,0E0,0E0,0E0,0E0,0E0,0E0,0E0],"parents":[2147483647,0,0,1,1,2,2,3,3,4,4,5,5,6,6,7,7,8,8,9,9,10,10,11,11,12,12,13,13],"right_children":[2,4,6,8,10,12,14,16,18,20,22,24,26,28,-1,-1,-1,-1,-1,-1,-1,-1,-1,-1,-1,-1,-1,-1,-1],"split_conditions":[4.1395213E-2,4.1205713E-1,6.222679E-1,5.9138525E-1,-1.19344726E-1,2.2602703E-1,1.0115541E0,1.0264863E0,-2.0518243E-2,2.5791211E-2,-5.608984E-1,1.4066656E-1,9.315576E-2,1.531782E-1,-6.9632955E-2,6.310801E-2,-2.4930818E-2,-5.279849E-2,8.23089E-3,-6.735094E-2,-2.3296488E-2,-5.0963566E-2,4.419351E-2,2.7768807E-2,-4.2690907E-2,-6.7692526E-2,-3.6670584E-2,-3.7199654E-2,-6.776755E-2],"split_indices":[12,2,12,3,6,3,12,1,0,5,8,2,6,3,0,0,0,0,0,0,0,0,0,0,0,0,0,0,0],"split_type":[0,0,0,0,0,0,0,0,0,0,0,0,0,0,0,0,0,0,0,0,0,0,0,0,0,0,0,0,0],"sum_hessian":[1.899319E4,1.1144506E4,7.8486836E3,8.957026E3,2.1874795E3,2.579729E3,5.2689546E3,8.0796006E3,8.774254E2,1.1719562E3,1.01552325E3,1.4292971E3,1.1504319E3,1.4959974E3,3.772957E3,7.7638696E3,3.1573108E2,3.7317273E2,5.0425266E2,7.245897E2,4.4736646E2,4.188451E2,5.966781E2,9.197303E2,5.095669E2,7.895206E2,3.609112E2,6.1477997E2,8.8121747E2],"tree_param":{"num_deleted":"0","num_feature":"15","num_nodes":"29","size_leaf_vector":"1"}},{"base_weights":[-4.111566E-3,8.5118985E-1,-8.6261386E-1,1.0359523E0,-4.674036E-1,-2.27005E-1,-1.1106403E0,1.150336E0,7.3046637E-1,-8.1413694E-2,-1.0784827E0,3.6485523E-1,-9.0034354E-1,-8.174843E-1,-1.1807916E0,6.72593E-2,4.7406133E-2,8.110237E-3,5.6114532E-2,-3.5800528E-2,2.9152384E-2,-3.0867746E-2,-6.646735E-2,-2.0466097E-2,4.0238317E-2,-2.8645644E-2,-6.6150256E-2,-6.279814E-2,-2.224669E-2,-6.0839087E-2,-6.969758E-2],"categories":[],"categories_nodes":[],"categories_segments":[],"categories_sizes":[],"default_left":[0,0,0,0,0,0,0,0,0,0,0,0,0,0,0,0,0,0,0,0,0,0,0,0,0,0,0,0,0,0,0],"id":18,"left_children":[1,3,5,7,9,11,13,15,17,19,21,23,25,27,29,-1,-1,-1,-1,-1,-1,-1,-1,-1,-1,-1,-1,-1,-1,-1,-1],"loss_changes":[1.3550597E4,2.2543975E3,1.4493179E3,2.7790234E2,2.6634546E2,1.0344839E3,1.3015283E2,2.2118164E1,3.1435278E2,2.2291808E2,1.2889069E1,3.3093854E2,1.1617401E2,1.4752008E2,1.0365234E1,0E0,0E0,0E0,0E0,0E0,0E0,0E0,0E0,0E0,0E0,0E0,0E0,0E0,0E0,0E0,0E0],"parents":[2147483647,0,0,1,1,2,2,3,3,4,4,5,5,6,6,7,7,8,8,9,9,10,10,11,11,12,12,13,13,14,14],"right_children":[2,4,6,8,10,12,14,16,18,20,22,24,26,28,30,-1,-1,-1,-1,-1,-1,-1,-1,-1,-1,-1,-1,-1,-1,-1,-1],"split_conditions":[-3.3906363E-2,3.9789787E-1,-2.6422313E-1,-5.359998E-1,1.1372929E0,6.248888E-1,4.2211533E-1,1.6931994E-1,-2.1564817E-1,5.51043E-3,-9.300419E-1,-4.552544E-1,9.639639E-1,3.7132058E-1,6.9640183E-1,6.72593E-2,4.7406133E-2,8.110237E-3,5.6114532E-2,-3.5800528E-2,2.9152384E-2,-3.0867746E-2,-6.646735E-2,-2.0466097E-2,4.0238317E-2,-2.8645644E-2,-6.6150256E-2,-6.279814E-2,-2.224669E-2,-6.0839087E-2,-6.969758E-2],"split_indices":[4,12,12,4,12,4,4,12,6,6,4,5,4,9,4,0,0,0,0,0,0,0,0,0,0,0,0,0,0,0,0],"split_type":[0,0,0,0,0,0,0,0,0,0,0,0,0,0,0,0,0,0,0,0,0,0,0,0,0,0,0,0,0,0,0],"sum_hessian":[1.8447602E4,9.240218E3,9.207384E3,8.1061626E3,1.1340547E3,2.5878044E3,6.619579E3,5.887739E3,2.2184238E3,6.987725E2,4.3528223E2,1.3769268E3,1.2108777E3,1.2902325E3,5.3293467E3,5.6273115E3,2.6042706E2,6.47266E2,1.5711578E3,3.6535526E2,3.3341727E2,5.686274E1,3.7841946E2,4.334291E2,9.434976E2,4.632536E2,7.476241E2,7.8890717E2,5.013254E2,9.451572E2,4.3841895E3],"tree_param":{"num_deleted":"0","num_feature":"15","num_nodes":"31","size_leaf_vector":"1"}},{"base_weights":[-2.3236584E-3,7.299707E-1,-9.570232E-1,9.7015226E-1,-5.2860963E-1,-4.557409E-1,-1.1324905E0,1.0067099E0,-1.1680644E0,-5.8203746E-2,-1.0076845E0,6.9548506E-3,-1.0388808E0,-9.382018E-1,-6.8448596E-2,3.216875E-2,6.5430276E-2,7.112664E-3,-7.9516314E-2,-4.790754E-2,2.259798E-2,-1.1013626E-2,-6.371387E-2,-4.7421522E-2,2.5143838E-2,-4.6301562E-2,-6.7197554E-2,-3.3222355E-2,-6.545937E-2],"categories":[],"categories_nodes":[],"categories_segments":[],"categories_sizes":[],"default_left":[0,0,0,0,0,0,0,0,0,0,0,0,0,0,0,0,0,0,0,0,0,0,0,0,0,0,0,0,0],"id":19,"left_children":[1,3,5,7,9,11,13,15,17,19,21,23,25,27,-1,-1,-1,-1,-1,-1,-1,-1,-1,-1,-1,-1,-1,-1,-1],"loss_changes":[1.2499088E4,3.0604453E3,6.7870264E2,6.679346E2,3.6392786E2,5.465175E2,5.2365723E1,4.7058984E2,4.113684E1,2.873758E2,6.020746E1,4.0107477E2,2.0595581E1,8.4181274E1,0E0,0E0,0E0,0E0,0E0,0E0,0E0,0E0,0E0,0E0,0E0,0E0,0E0,0E0,0E0],"parents":[2147483647,0,0,1,1,2,2,3,3,4,4,5,5,6,6,7,7,8,8,9,9,10,10,11,11,12,12,13,13],"right_children":[2,4,6,8,10,12,14,16,18,20,22,24,26,28,-1,-1,-1,-1,-1,-1,-1,-1,-1,-1,-1,-1,-1,-1,-1],"split_conditions":[1.9040729E-1,5.334988E-1,8.544888E-2,1.1730087E0,8.7723476E-1,8.316057E-1,6.1003596E-1,-1.730035E-1,-9.300419E-1,-6.1933935E-2,-9.409077E-1,-1.9747646E-1,1.1038371E0,6.3755774E-1,-6.8448596E-2,3.216875E-2,6.5430276E-2,7.112664E-3,-7.9516314E-2,-4.790754E-2,2.259798E-2,-1.1013626E-2,-6.371387E-2,-4.7421522E-2,2.5143838E-2,-4.6301562E-2,-6.7197554E-2,-3.3222355E-2,-6.545937E-2],"split_indices":[4,14,14,0,14,4,4,0,4,0,4,0,4,14,0,0,0,0,0,0,0,0,0,0,0,0,0,0,0],"split_type":[0,0,0,0,0,0,0,0,0,0,0,0,0,0,0,0,0,0,0,0,0,0,0,0,0,0,0,0,0],"sum_hessian":[1.7871148E4,1.0113205E4,7.7579434E3,8.494116E3,1.6190885E3,2.0166808E3,5.7412627E3,8.35372E3,1.4039685E2,8.203148E2,7.987737E2,1.124956E3,8.9172473E2,1.2484447E3,4.492818E3,1.8401105E3,6.513609E3,1.8811146E1,1.215857E2,3.0214114E2,5.1817365E2,8.63913E1,7.123824E2,3.8140182E2,7.4355426E2,3.2017856E2,5.715462E2,4.4421777E2,8.042269E2],"tree_param":{"num_deleted":"0","num_feature":"15","num_nodes":"29","size_leaf_vector":"1"}},{"base_weights":[-4.5613752E-4,5.2277553E-1,-9.5472074E-1,9.404394E-1,-9.920064E-2,2.2147588E-1,-1.0477954E0,1.0935117E0,6.271145E-1,-7.301947E-1,4.8605138E-1,6.6592115E-1,-9.1684866E-1,-6.816454E-1,-1.1237054E0,5.475401E-2,6.6580735E-2,-9.312282E-3,5.161234E-2,-5.5288374E-2,-8.948947E-3,3.8187105E-2,-1.8032338E-2,5.189941E-3,5.650122E-2,-2.857874E-2,-6.6753425E-2,-4.624705E-3,-6.2776595E-2,-5.581175E-2,-6.761319E-2],"categories":[],"categories_nodes":[],"categories_segments":[],"categories_sizes":[],"default_left":[0,0,0,0,0,0,0,0,0,0,0,0,0,0,0,0,0,0,0,0,0,0,0,0,0,0,0,0,0,0,0],"id":20,"left_children":[1,3,5,7,9,11,13,15,17,19,21,23,25,27,29,-1,-1,-1,-1,-1,-1,-1,-1,-1,-1,-1,-1,-1,-1,-1,-1],"loss_changes":[8.638635E3,2.9039033E3,6.7275244E2,3.1593945E2,1.6597046E3,2.2984366E2,1.5275879E2,3.217383E1,4.6524268E2,2.8077466E2,3.2730188E2,5.71084E1,8.587624E0,2.3885776E2,2.8066895E1,0E0,0E0,0E0,0E0,0E0,0E0,0E0,0E0,0E0,0E0,0E0,0E0,0E0,0E0,0E0,0E0],"parents":[2147483647,0,0,1,1,2,2,3,3,4,4,5,5,6,6,7,7,8,8,9,9,10,10,11,11,12,12,13,13,14,14],"right_children":[2,4,6,8,10,12,14,16,18,20,22,24,26,28,30,-1,-1,-1,-1,-1,-1,-1,-1,-1,-1,-1,-1,-1,-1,-1,-1],"split_conditions":[2.5641245E-1,1.9340266E-1,-1.2179815E0,-3.6765385E-1,1.2832548E-1,1.2095273E0,-4.0587744E-1,-4.6684453E-1,-5.024612E-1,9.4434065E-1,8.9220685E-1,-2.9580098E-1,1.5348649E0,8.858031E-1,6.6019756E-1,5.475401E-2,6.6580735E-2,-9.312282E-3,5.161234E-2,-5.5288374E-2,-8.948947E-3,3.8187105E-2,-1.8032338E-2,5.189941E-3,5.650122E-2,-2.857874E-2,-6.6753425E-2,-4.624705E-3,-6.2776595E-2,-5.581175E-2,-6.761319E-2],"split_indices":[12,9,13,9,5,12,13,5,5,10,1,5,12,12,12,0,0,0,0,0,0,0,0,0,0,0,0,0,0,0,0],"split_type":[0,0,0,0,0,0,0,0,0,0,0,0,0,0,0,0,0,0,0,0,0,0,0,0,0,0,0,0,0,0,0],"sum_hessian":[1.7293541E4,1.1169329E4,6.1242114E3,6.6825103E3,4.486819E3,4.476325E2,5.6765786E3,4.48068E3,2.20183E3,2.1598003E3,2.3270183E3,3.2382654E2,1.2380598E2,9.836977E2,4.692881E3,1.3264276E3,3.1542527E3,5.5561444E2,1.6462155E3,1.5446826E3,6.151176E2,1.9099873E3,4.1703107E2,1.17016335E2,2.068102E2,5.0645813E1,7.3160164E1,3.991404E2,5.845573E2,1.1084884E3,3.5843926E3],"tree_param":{"num_deleted":"0","num_feature":"15","num_nodes":"31","size_leaf_vector":"1"}},{"base_weights":[-5.47648E-3,8.0232424E-1,-8.009479E-1,9.8674154E-1,-3.349764E-1,-1.239453E-1,-1.0321765E0,1.0142314E0,-1.2319752E0,-8.9326423E-1,1.1837277E-1,3.238594E-1,-9.237268E-1,-7.650467E-1,-6.661536E-2,3.8682673E-2,6.413446E-2,-1.9404108E-2,-8.080618E-2,8.618977E-3,-6.1148852E-2,4.4359133E-2,-6.2868126E-2,2.982776E-2,-7.866077E-2,-2.8109383E-2,-6.1579652E-2,-2.162528E-2,-6.1284438E-2],"categories":[],"categories_nodes":[],"categories_segments":[],"categories_sizes":[],"default_left":[0,0,0,0,0,0,0,0,0,0,0,0,0,0,0,0,0,0,0,0,0,0,0,0,0,0,0,0,0],"id":21,"left_children":[1,3,5,7,9,11,13,15,17,19,21,23,25,27,-1,-1,-1,-1,-1,-1,-1,-1,-1,-1,-1,-1,-1,-1,-1],"loss_changes":[1.0780619E4,1.7477026E3,1.3213306E3,4.4079932E2,2.9573703E2,7.746003E2,1.9880322E2,2.3013965E2,9.262009E0,9.21582E1,5.069444E2,4.510479E2,4.4494263E1,2.261156E2,0E0,0E0,0E0,0E0,0E0,0E0,0E0,0E0,0E0,0E0,0E0,0E0,0E0,0E0,0E0],"parents":[2147483647,0,0,1,1,2,2,3,3,4,4,5,5,6,6,7,7,8,8,9,9,10,10,11,11,12,12,13,13],"right_children":[2,4,6,8,10,12,14,16,18,20,22,24,26,28,-1,-1,-1,-1,-1,-1,-1,-1,-1,-1,-1,-1,-1,-1,-1],"split_conditions":[-5.115052E-2,3.2688534E-1,-4.0897623E-1,1.2144241E0,9.055129E-2,7.651088E-1,6.1003596E-1,-1.4853053E-1,1.2746654E0,-1.0788146E0,8.398E-1,9.621649E-1,9.5337313E-1,4.360852E-1,-6.661536E-2,3.8682673E-2,6.413446E-2,-1.9404108E-2,-8.080618E-2,8.618977E-3,-6.1148852E-2,4.4359133E-2,-6.2868126E-2,2.982776E-2,-7.866077E-2,-2.8109383E-2,-6.1579652E-2,-2.162528E-2,-6.1284438E-2],"split_indices":[4,12,12,0,0,4,4,0,0,4,0,0,4,12,0,0,0,0,0,0,0,0,0,0,0,0,0,0,0],"split_type":[0,0,0,0,0,0,0,0,0,0,0,0,0,0,0,0,0,0,0,0,0,0,0,0,0,0,0,0,0],"sum_hessian":[1.6770342E4,8.319792E3,8.45055E3,7.160394E3,1.1593982E3,2.154307E3,6.296242E3,7.0751836E3,8.521043E1,5.1950995E2,6.3988824E2,1.3811887E3,7.731183E2,1.9797146E3,4.316528E3,1.5576617E3,5.517522E3,1.6330433E1,6.887999E1,7.013846E1,4.493715E2,4.1751074E2,2.2237752E2,1.2423538E3,1.388349E2,1.964481E2,5.7667017E2,8.593882E2,1.1203265E3],"tree_param":{"num_deleted":"0","num_feature":"15","num_nodes":"29","size_leaf_vector":"1"}},{"base_weights":[2.4859695E-4,6.813246E-1,-8.982885E-1,7.735464E-1,-9.25623E-1,-4.9057302E-1,-1.0748125E0,1.2631108E-1,1.036994E0,-6.0179044E-2,-1.1923919E0,-9.4708943E-1,8.355344E-3,-1.1200433E0,-8.188124E-1,4.2800788E-2,-2.9563341E-2,1.0423109E-2,6.28447E-2,2.8787885E-2,-6.1432082E-2,-7.691703E-2,-3.839052E-2,-6.246866E-2,-3.5622556E-2,-4.088868E-2,2.4984092E-2,-5.686547E-2,-6.650986E-2,-2.0211905E-2,-6.475497E-2],"categories":[],"categories_nodes":[],"categories_segments":[],"categories_sizes":[],"default_left":[0,0,0,0,0,0,0,0,0,0,0,0,0,0,0,0,0,0,0,0,0,0,0,0,0,0,0,0,0,0,0],"id":22,"left_children":[1,3,5,7,9,11,13,15,17,19,21,23,25,27,29,-1,-1,-1,-1,-1,-1,-1,-1,-1,-1,-1,-1,-1,-1,-1,-1],"loss_changes":[9.936011E3,1.3710293E3,4.9980957E2,1.4878784E3,1.1389154E2,4.8501984E2,5.0696777E1,9.958995E2,2.707622E2,7.158138E1,2.239154E1,4.4777954E1,3.0966382E2,1.0966309E1,1.0298514E2,0E0,0E0,0E0,0E0,0E0,0E0,0E0,0E0,0E0,0E0,0E0,0E0,0E0,0E0,0E0,0E0],"parents":[2147483647,0,0,1,1,2,2,3,3,4,4,5,5,6,6,7,7,8,8,9,9,10,10,11,11,12,12,13,13,14,14],"right_children":[2,4,6,8,10,12,14,16,18,20,22,24,26,28,30,-1,-1,-1,-1,-1,-1,-1,-1,-1,-1,-1,-1,-1,-1,-1,-1],"split_conditions":[1.9040729E-1,1.0167584E0,6.5384525E-1,-3.9343588E-2,-7.140093E-1,3.897157E-1,1.2080065E0,-6.092433E-1,-9.765044E-1,1.2520753E0,7.4360293E-1,1.1642088E-1,-2.0518243E-2,8.567405E-1,1.1038371E0,4.2800788E-2,-2.9563341E-2,1.0423109E-2,6.28447E-2,2.8787885E-2,-6.1432082E-2,-7.691703E-2,-3.839052E-2,-6.246866E-2,-3.5622556E-2,-4.088868E-2,2.4984092E-2,-5.686547E-2,-6.650986E-2,-2.0211905E-2,-6.475497E-2],"split_indices":[4,0,4,0,4,13,13,4,6,0,6,13,0,4,4,0,0,0,0,0,0,0,0,0,0,0,0,0,0,0,0],"split_type":[0,0,0,0,0,0,0,0,0,0,0,0,0,0,0,0,0,0,0,0,0,0,0,0,0,0,0,0,0,0,0],"sum_hessian":[1.6229871E4,9.233451E3,6.9964204E3,8.734779E3,4.9867148E2,2.1201558E3,4.876264E3,2.5298293E3,6.20495E3,1.19708755E2,3.789627E2,1.1070463E3,1.0131096E3,4.1298022E3,7.464621E2,1.2893551E3,1.2404744E3,3.5358853E2,5.8513613E3,7.707669E1,4.2632065E1,2.9347214E2,8.549057E1,7.776963E2,3.2934998E2,3.747601E2,6.383495E2,8.152592E2,3.314543E3,2.9751456E2,4.4894757E2],"tree_param":{"num_deleted":"0","num_feature":"15","num_nodes":"31","size_leaf_vector":"1"}},{"base_weights":[-3.6844942E-3,7.5400716E-1,-7.6453674E-1,9.48374E-1,-3.239476E-1,-1.8594483E-1,-1.0343244E0,9.7506845E-1,-1.1146344E0,9.750355E-2,-8.753274E-1,1.8600538E-1,-9.537219E-1,-7.8463024E-1,-1.1261997E0,6.2213562E-2,3.7315182E-2,-2.1275714E-2,-7.570875E-2,-3.671965E-2,2.953324E-2,1.9285714E-2,-5.5034824E-2,2.1213055E-2,-8.480679E-2,-4.0022187E-2,-6.3716464E-2,-2.6784686E-2,-6.293575E-2,-6.0358334E-2,-6.6403314E-2],"categories":[],"categories_nodes":[],"categories_segments":[],"categories_sizes":[],"default_left":[0,0,0,0,0,0,0,0,0,0,0,0,0,0,0,0,0,0,0,0,0,0,0,0,0,0,0,0,0,0,0],"id":23,"left_children":[1,3,5,7,9,11,13,15,17,19,21,23,25,27,29,-1,-1,-1,-1,-1,-1,-1,-1,-1,-1,-1,-1,-1,-1,-1,-1],"loss_changes":[9.091294E3,1.65721E3,1.2260405E3,3.7216455E2,2.821695E2,7.179776E2,1.1741455E2,2.1783984E2,8.683929E0,2.0931235E2,5.1352905E1,5.0783167E2,2.69198E1,1.3891577E2,4.091797E-1,0E0,0E0,0E0,0E0,0E0,0E0,0E0,0E0,0E0,0E0,0E0,0E0,0E0,0E0,0E0,0E0],"parents":[2147483647,0,0,1,1,2,2,3,3,4,4,5,5,6,6,7,7,8,8,9,9,10,10,11,11,12,12,13,13,14,14],"right_children":[2,4,6,8,10,12,14,16,18,20,22,24,26,28,30,-1,-1,-1,-1,-1,-1,-1,-1,-1,-1,-1,-1,-1,-1,-1,-1],"split_conditions":[-3.3906363E-2,5.0993854E-1,1.0745535E-1,1.2144241E0,8.584503E-1,8.316057E-1,5.477989E-1,-4.7474262E-1,-7.3846745E-1,-3.9343588E-2,-1.2787377E0,1.0355837E0,1.1038371E0,7.575207E-1,8.567405E-1,6.2213562E-2,3.7315182E-2,-2.1275714E-2,-7.570875E-2,-3.671965E-2,2.953324E-2,1.9285714E-2,-5.5034824E-2,2.1213055E-2,-8.480679E-2,-4.0022187E-2,-6.3716464E-2,-2.6784686E-2,-6.293575E-2,-6.0358334E-2,-6.6403314E-2],"split_indices":[4,14,14,0,14,4,4,4,4,0,4,0,4,14,4,0,0,0,0,0,0,0,0,0,0,0,0,0,0,0,0],"split_type":[0,0,0,0,0,0,0,0,0,0,0,0,0,0,0,0,0,0,0,0,0,0,0,0,0,0,0,0,0,0,0],"sum_hessian":[1.5763332E4,7.897155E3,7.8661772E3,6.6921934E3,1.2049615E3,2.5049324E3,5.3612446E3,6.609121E3,8.307208E1,6.830528E2,5.219088E2,1.687913E3,8.170194E2,1.4547793E3,3.9064653E3,5.0308906E3,1.5782303E3,2.0820139E1,6.2251945E1,2.4455884E2,4.3849396E2,2.978088E1,4.9212793E2,1.5242911E3,1.6362175E2,3.0846817E2,5.0855127E2,7.158171E2,7.389623E2,9.3593396E2,2.9705315E3],"tree_param":{"num_deleted":"0","num_feature":"15","num_nodes":"31","size_leaf_vector":"1"}},{"base_weights":[-2.8039496E-3,5.912522E-1,-7.2755045E-1,8.192481E-1,-2.699535E-1,4.619776E-1,-8.6638874E-1,9.6536046E-1,4.561537E-2,-8.199483E-1,9.630589E-2,7.6405257E-1,-3.630746E-1,-5.537471E-1,-1.0679818E0,5.8796465E-2,-8.126755E-3,-4.111031E-2,2.5807275E-2,-6.613991E-2,-3.9293166E-2,3.7227694E-2,-6.29848E-2,4.7879606E-2,-4.3866515E-2,-5.04433E-2,7.7931248E-3,-6.1438173E-2,-8.76924E-3,-5.274842E-2,-6.495926E-2],"categories":[],"categories_nodes":[],"categories_segments":[],"categories_sizes":[],"default_left":[0,0,0,0,0,0,0,0,0,0,0,0,0,0,0,0,0,0,0,0,0,0,0,0,0,0,0,0,0,0,0],"id":24,"left_children":[1,3,5,7,9,11,13,15,17,19,21,23,25,27,29,-1,-1,-1,-1,-1,-1,-1,-1,-1,-1,-1,-1,-1,-1,-1,-1],"loss_changes":[6.560426E3,1.6454741E3,1.1356265E3,7.469663E2,3.5457068E2,1.8058844E2,3.833081E2,3.275791E2,3.2207104E2,2.672174E1,6.8803125E2,5.4653442E1,5.0662956E1,4.940871E2,2.655371E1,0E0,0E0,0E0,0E0,0E0,0E0,0E0,0E0,0E0,0E0,0E0,0E0,0E0,0E0,0E0,0E0],"parents":[2147483647,0,0,1,1,2,2,3,3,4,4,5,5,6,6,7,7,8,8,9,9,10,10,11,11,12,12,13,13,14,14],"right_children":[2,4,6,8,10,12,14,16,18,20,22,24,26,28,30,-1,-1,-1,-1,-1,-1,-1,-1,-1,-1,-1,-1,-1,-1,-1,-1],"split_conditions":[-1.1507458E-1,3.816677E-1,-6.3835335E-1,3.554309E-1,-6.1933935E-2,7.158222E-1,6.4132845E-1,7.994291E-1,-3.9343588E-2,-8.22318E-1,8.529777E-1,1.0544091E0,1.0372899E-1,-2.0518243E-2,1.0115541E0,5.8796465E-2,-8.126755E-3,-4.111031E-2,2.5807275E-2,-6.613991E-2,-3.9293166E-2,3.7227694E-2,-6.29848E-2,4.7879606E-2,-4.3866515E-2,-5.04433E-2,7.7931248E-3,-6.1438173E-2,-8.76924E-3,-5.274842E-2,-6.495926E-2],"split_indices":[12,2,9,1,0,12,12,3,0,7,0,0,0,0,12,0,0,0,0,0,0,0,0,0,0,0,0,0,0,0,0],"split_type":[0,0,0,0,0,0,0,0,0,0,0,0,0,0,0,0,0,0,0,0,0,0,0,0,0,0,0,0,0,0,0],"sum_hessian":[1.5230538E4,8.369191E3,6.861346E3,6.618746E3,1.7504454E3,7.15258E2,6.1460884E3,5.565047E3,1.0536991E3,6.996031E2,1.0508423E3,5.250004E2,1.9025755E2,2.4170793E3,3.729009E3,5.3124883E3,2.5255885E2,3.627778E2,6.909213E2,1.9956033E2,5.0004276E2,7.2063806E2,3.3020422E2,5.0582376E2,1.917666E1,9.410786E1,9.61497E1,1.0609507E3,1.3561285E3,1.0273927E3,2.7016162E3],"tree_param":{"num_deleted":"0","num_feature":"15","num_nodes":"31","size_leaf_vector":"1"}},{"base_weights":[-1.7490081E-3,6.003295E-1,-8.946155E-1,8.344971E-1,-4.8351026E-1,-3.0965412E-1,-1.0181113E0,8.8963145E-1,-8.206979E-1,-1.4165337E-1,-1.0242867E0,5.2401558E-2,-8.981134E-1,-7.957952E-1,-1.100082E0,2.4548747E-2,6.1062355E-2,1.5337143E-2,-6.908902E-2,-4.351943E-2,1.3519794E-2,-2.0274691E-2,-6.2190473E-2,-3.748105E-2,2.827826E-2,-3.673997E-2,-6.270911E-2,-2.9233556E-2,-6.214711E-2,-5.4512765E-2,-6.4507365E-2],"categories":[],"categories_nodes":[],"categories_segments":[],"categories_sizes":[],"default_left":[0,0,0,0,0,0,0,0,0,0,0,0,0,0,0,0,0,0,0,0,0,0,0,0,0,0,0,0,0,0,0],"id":25,"left_children":[1,3,5,7,9,11,13,15,17,19,21,23,25,27,29,-1,-1,-1,-1,-1,-1,-1,-1,-1,-1,-1,-1,-1,-1,-1,-1],"loss_changes":[7.9652993E3,2.2475193E3,4.2820752E2,6.667554E2,2.8868063E2,2.2445006E2,8.413281E1,5.458418E2,9.8539215E1,2.2426064E2,1.82807E1,2.002398E2,1.4963776E1,1.0502722E2,3.1186523E0,0E0,0E0,0E0,0E0,0E0,0E0,0E0,0E0,0E0,0E0,0E0,0E0,0E0,0E0,0E0,0E0],"parents":[2147483647,0,0,1,1,2,2,3,3,4,4,5,5,6,6,7,7,8,8,9,9,10,10,11,11,12,12,13,13,14,14],"right_children":[2,4,6,8,10,12,14,16,18,20,22,24,26,28,30,-1,-1,-1,-1,-1,-1,-1,-1,-1,-1,-1,-1,-1,-1,-1,-1],"split_conditions":[2.7310336E-1,3.2688534E-1,-6.063049E-1,1.0544091E0,1.1019585E0,9.062011E-1,6.9640183E-1,-2.0518243E-2,-7.0327044E-1,-8.0759265E-2,-1.0195761E0,3.2192722E-2,1.1742722E0,5.469175E-1,-2.526315E-1,2.4548747E-2,6.1062355E-2,1.5337143E-2,-6.908902E-2,-4.351943E-2,1.3519794E-2,-2.0274691E-2,-6.2190473E-2,-3.748105E-2,2.827826E-2,-3.673997E-2,-6.270911E-2,-2.9233556E-2,-6.214711E-2,-5.4512765E-2,-6.4507365E-2],"split_indices":[4,12,12,0,12,4,4,0,4,0,4,0,4,12,12,0,0,0,0,0,0,0,0,0,0,0,0,0,0,0,0],"split_type":[0,0,0,0,0,0,0,0,0,0,0,0,0,0,0,0,0,0,0,0,0,0,0,0,0,0,0,0,0,0,0],"sum_hessian":[1.4809619E4,8.844858E3,5.964761E3,7.2751157E3,1.5697428E3,1.0437946E3,4.920967E3,7.042916E3,2.3219937E2,9.6594305E2,6.0379974E2,6.4660596E2,3.9718863E2,1.3399248E3,3.5810417E3,1.8750968E3,5.1678193E3,5.8968742E1,1.7323064E2,3.676205E2,5.983225E2,4.7689514E1,5.561102E2,2.464435E2,4.0016248E2,1.7522029E2,2.2196834E2,6.6645886E2,6.7346594E2,3.802639E2,3.2007778E3],"tree_param":{"num_deleted":"0","num_feature":"15","num_nodes":"31","size_leaf_vector":"1"}},{"base_weights":[-9.3902793E-4,7.343374E-1,-6.96936E-1,9.168734E-1,-2.4643736E-1,-1.3375601E-1,-9.7463995E-1,1.0494962E0,6.4567226E-1,1.0355127E-1,-8.9921445E-1,2.7874252E-1,-7.527088E-1,-7.2846746E-1,-1.0939769E0,6.2811784E-2,5.212588E-2,6.396215E-3,5.1331278E-2,-2.3278762E-2,3.477656E-2,1.2580162E-2,-5.5530686E-2,-2.718762E-2,3.328267E-2,-2.376578E-2,-5.8960326E-2,-5.6264542E-2,-1.6956491E-2,-5.7033245E-2,-6.455298E-2],"categories":[],"categories_nodes":[],"categories_segments":[],"categories_sizes":[],"default_left":[0,0,0,0,0,0,0,0,0,0,0,0,0,0,0,0,0,0,0,0,0,0,0,0,0,0,0,0,0,0,0],"id":26,"left_children":[1,3,5,7,9,11,13,15,17,19,21,23,25,27,29,-1,-1,-1,-1,-1,-1,-1,-1,-1,-1,-1,-1,-1,-1,-1,-1],"loss_changes":[7.3231636E3,1.2473208E3,1.1478955E3,2.0639355E2,2.5118405E2,6.2273785E2,1.3935938E2,1.601123E1,2.506499E2,1.8132571E2,2.8509308E1,3.2715143E2,8.5888855E1,1.7059106E2,1.7546387E0,0E0,0E0,0E0,0E0,0E0,0E0,0E0,0E0,0E0,0E0,0E0,0E0,0E0,0E0,0E0,0E0],"parents":[2147483647,0,0,1,1,2,2,3,3,4,4,5,5,6,6,7,7,8,8,9,9,10,10,11,11,12,12,13,13,14,14],"right_children":[2,4,6,8,10,12,14,16,18,20,22,24,26,28,30,-1,-1,-1,-1,-1,-1,-1,-1,-1,-1,-1,-1,-1,-1,-1,-1],"split_conditions":[-8.082391E-2,5.0993854E-1,7.4772276E-2,-6.213298E-1,9.2188424E-1,6.5384525E-1,6.1003596E-1,-1.953362E-3,-1.5378642E-1,5.51043E-3,-1.3508981E0,-5.3514653E-1,1.0087727E0,1.4381345E-1,8.4402895E-1,6.2811784E-2,5.212588E-2,6.396215E-3,5.1331278E-2,-2.3278762E-2,3.477656E-2,1.2580162E-2,-5.5530686E-2,-2.718762E-2,3.328267E-2,-2.376578E-2,-5.8960326E-2,-5.6264542E-2,-1.6956491E-2,-5.7033245E-2,-6.455298E-2],"split_indices":[4,14,14,4,14,4,4,14,6,6,4,6,4,6,4,0,0,0,0,0,0,0,0,0,0,0,0,0,0,0,0],"split_type":[0,0,0,0,0,0,0,0,0,0,0,0,0,0,0,0,0,0,0,0,0,0,0,0,0,0,0,0,0,0,0],"sum_hessian":[1.4303456E4,6.9543813E3,7.3490747E3,5.864562E3,1.0898191E3,2.430365E3,4.9187095E3,3.9285989E3,1.9359631E3,7.098676E2,3.7995142E2,1.4581443E3,9.722208E2,1.6175504E3,3.3011592E3,3.09072E3,8.378789E2,6.086196E2,1.3273435E3,3.5102954E2,3.588381E2,1.8491484E1,3.6145993E2,4.1254935E2,1.0455948E3,4.3415573E2,5.380651E2,1.0284221E3,5.8912823E2,6.447674E2,2.6563918E3],"tree_param":{"num_deleted":"0","num_feature":"15","num_nodes":"31","size_leaf_vector":"1"}},{"base_weights":[4.8483525E-5,7.6570505E-1,-6.302328E-1,9.674751E-1,4.4506943E-1,-1.7495044E-1,-9.720068E-1,7.1770364E-1,1.0346111E0,-4.9294624E-1,6.597063E-1,-6.256629E-1,3.54413E-1,-7.2475755E-1,-1.0673981E0,5.549788E-2,2.3251312E-2,3.794144E-2,6.2145367E-2,-5.2640513E-2,6.6292477E-3,9.909273E-4,4.9187783E-2,-5.438597E-2,-8.598324E-3,-7.174164E-3,4.4586726E-2,-5.9083756E-2,-1.7350724E-2,-6.3572645E-2,-5.2620187E-2],"categories":[],"categories_nodes":[],"categories_segments":[],"categories_sizes":[],"default_left":[0,0,0,0,0,0,0,0,0,0,0,0,0,0,0,0,0,0,0,0,0,0,0,0,0,0,0,0,0,0,0],"id":27,"left_children":[1,3,5,7,9,11,13,15,17,19,21,23,25,27,29,-1,-1,-1,-1,-1,-1,-1,-1,-1,-1,-1,-1,-1,-1,-1,-1],"loss_changes":[6.7087627E3,4.02698E2,1.184103E3,5.955957E1,4.91274E2,7.8248505E2,9.753174E1,6.0465515E1,4.268286E1,1.169653E2,2.435625E2,2.6506024E2,3.0253156E2,1.523852E2,1.02092285E1,0E0,0E0,0E0,0E0,0E0,0E0,0E0,0E0,0E0,0E0,0E0,0E0,0E0,0E0,0E0,0E0],"parents":[2147483647,0,0,1,1,2,2,3,3,4,4,5,5,6,6,7,7,8,8,9,9,10,10,11,11,12,12,13,13,14,14],"right_children":[2,4,6,8,10,12,14,16,18,20,22,24,26,28,30,-1,-1,-1,-1,-1,-1,-1,-1,-1,-1,-1,-1,-1,-1,-1,-1],"split_conditions":[-1.8885913E-1,-7.140093E-1,5.6372625E-1,-5.9383976E-1,-6.3023484E-1,3.897157E-1,8.686699E-1,-1.126132E0,-1.2172632E0,1.8201101E-1,-4.8958367E-1,9.315576E-2,3.893374E-2,5.8238906E-1,1.1587614E0,5.549788E-2,2.3251312E-2,3.794144E-2,6.2145367E-2,-5.2640513E-2,6.6292477E-3,9.909273E-4,4.9187783E-2,-5.438597E-2,-8.598324E-3,-7.174164E-3,4.4586726E-2,-5.9083756E-2,-1.7350724E-2,-6.3572645E-2,-5.2620187E-2],"split_indices":[4,4,4,6,13,13,4,4,7,6,6,6,5,13,13,0,0,0,0,0,0,0,0,0,0,0,0,0,0,0,0],"split_type":[0,0,0,0,0,0,0,0,0,0,0,0,0,0,0,0,0,0,0,0,0,0,0,0,0,0,0,0,0,0,0],"sum_hessian":[1.3894814E4,6.2743496E3,7.620465E3,3.8441492E3,2.4302002E3,3.2715586E3,4.3489062E3,8.2710834E2,3.017041E3,4.5049777E2,1.9797025E3,1.7681641E3,1.5033947E3,1.2228596E3,3.1260464E3,4.6017123E2,3.669371E2,3.0874387E2,2.708297E3,2.6712106E2,1.8337672E2,4.5827026E2,1.5214323E3,1.0593165E3,7.088475E2,7.0014984E2,8.032448E2,7.1311554E2,5.097441E2,2.5484531E3,5.775932E2],"tree_param":{"num_deleted":"0","num_feature":"15","num_nodes":"31","size_leaf_vector":"1"}},{"base_weights":[-2.4680053E-3,5.5152404E-1,-8.401717E-1,7.796195E-1,-4.191687E-1,-3.3486566E-1,-9.9819726E-1,8.3902395E-1,-8.74549E-1,-4.623543E-2,-8.934372E-1,-8.394637E-1,4.192109E-2,-7.728179E-1,-1.0685531E0,1.8689627E-2,5.8458302E-2,5.7652304E-3,-6.9189295E-2,-3.999427E-2,1.935665E-2,-1.0634887E-2,-5.7438165E-2,-3.8589083E-2,-5.885183E-2,3.845751E-2,-6.520906E-2,-2.7486222E-2,-6.0801085E-2,-5.535919E-2,-6.334769E-2],"categories":[],"categories_nodes":[],"categories_segments":[],"categories_sizes":[],"default_left":[0,0,0,0,0,0,0,0,0,0,0,0,0,0,0,0,0,0,0,0,0,0,0,0,0,0,0,0,0,0,0],"id":28,"left_children":[1,3,5,7,9,11,13,15,17,19,21,23,25,27,29,-1,-1,-1,-1,-1,-1,-1,-1,-1,-1,-1,-1,-1,-1,-1,-1],"loss_changes":[6.2382227E3,1.792739E3,4.2432715E2,6.463103E2,2.7095502E2,2.4499742E2,5.9220215E1,5.624624E2,7.385979E1,2.1516972E2,4.630414E1,1.2256226E1,5.395423E2,7.813483E1,3.2636719E0,0E0,0E0,0E0,0E0,0E0,0E0,0E0,0E0,0E0,0E0,0E0,0E0,0E0,0E0,0E0,0E0],"parents":[2147483647,0,0,1,1,2,2,3,3,4,4,5,5,6,6,7,7,8,8,9,9,10,10,11,11,12,12,13,13,14,14],"right_children":[2,4,6,8,10,12,14,16,18,20,22,24,26,28,30,-1,-1,-1,-1,-1,-1,-1,-1,-1,-1,-1,-1,-1,-1,-1,-1],"split_conditions":[2.7310336E-1,2.9136908E-1,-4.2932042E-1,1.0544091E0,9.4017285E-1,-3.5753327E-3,6.5384525E-1,-1.4853053E-1,-7.0327044E-1,-3.9343588E-2,-9.191746E-1,8.813223E-1,8.6427295E-1,6.222679E-1,1.8663582E-1,1.8689627E-2,5.8458302E-2,5.7652304E-3,-6.9189295E-2,-3.999427E-2,1.935665E-2,-1.0634887E-2,-5.7438165E-2,-3.8589083E-2,-5.885183E-2,3.845751E-2,-6.520906E-2,-2.7486222E-2,-6.0801085E-2,-5.535919E-2,-6.334769E-2],"split_indices":[4,12,12,0,12,0,4,0,4,0,4,4,0,12,12,0,0,0,0,0,0,0,0,0,0,0,0,0,0,0,0],"split_type":[0,0,0,0,0,0,0,0,0,0,0,0,0,0,0,0,0,0,0,0,0,0,0,0,0,0,0,0,0,0,0],"sum_hessian":[1.3434536E4,8.086324E3,5.3482114E3,6.5494375E3,1.5368872E3,1.2787181E3,4.0694932E3,6.3248022E3,2.2463509E2,8.6407947E2,6.728077E2,5.464937E2,7.322244E2,9.8244446E2,3.0870488E3,1.5967084E3,4.7280938E3,5.5504566E1,1.6913051E2,3.210412E2,5.4303827E2,8.700918E1,5.8579846E2,2.9204825E2,2.5444548E2,4.7941364E2,2.5281079E2,4.8389066E2,4.985538E2,6.707504E2,2.4162983E3],"tree_param":{"num_deleted":"0","num_feature":"15","num_nodes":"31","size_leaf_vector":"1"}},{"base_weights":[-9.151913E-5,5.1158065E-1,-6.8314207E-1,6.2154716E-1,-9.829898E-1,7.5881764E-2,-8.88262E-1,2.536579E-2,9.342527E-1,2.0605644E-2,-1.0736413E0,4.6320632E-1,-8.275853E-1,-6.211131E-1,-1.0521234E0,4.8740726E-2,-1.871521E-2,5.5608436E-2,-2.3146348E-2,-4.4009652E-2,-7.6092154E-2,3.422013E-2,-5.8042105E-2,-2.0872945E-2,-5.8399767E-2,-5.9622083E-2,-1.53128775E-2,-5.249853E-2,-6.286936E-2],"categories":[],"categories_nodes":[],"categories_segments":[],"categories_sizes":[],"default_left":[0,0,0,0,0,0,0,0,0,0,0,0,0,0,0,0,0,0,0,0,0,0,0,0,0,0,0,0,0],"id":29,"left_children":[1,3,5,7,9,11,13,15,17,-1,19,21,23,25,27,-1,-1,-1,-1,-1,-1,-1,-1,-1,-1,-1,-1,-1,-1],"loss_changes":[4.546538E3,1.2236302E3,8.6892065E2,1.2903606E3,6.424069E1,4.161729E2,1.8755933E2,6.852364E2,1.7680005E2,0E0,3.0170593E1,1.599443E2,2.7364838E1,2.4325269E2,8.086182E0,0E0,0E0,0E0,0E0,0E0,0E0,0E0,0E0,0E0,0E0,0E0,0E0,0E0,0E0],"parents":[2147483647,0,0,1,1,2,2,3,3,4,4,5,5,6,6,7,7,8,8,10,10,11,11,12,12,13,13,14,14],"right_children":[2,4,6,8,10,12,14,16,18,-1,20,22,24,26,28,-1,-1,-1,-1,-1,-1,-1,-1,-1,-1,-1,-1,-1,-1],"split_conditions":[-5.922536E-2,1.0167584E0,-6.453752E-1,3.2192722E-2,-6.453752E-1,1.0115541E0,6.222679E-1,-1.1468247E-1,1.4120252E0,2.0605644E-2,1.2746654E0,9.621649E-1,1.3100123E0,-2.0518243E-2,9.036E-1,4.8740726E-2,-1.871521E-2,5.5608436E-2,-2.3146348E-2,-4.4009652E-2,-7.6092154E-2,3.422013E-2,-5.8042105E-2,-2.0872945E-2,-5.8399767E-2,-5.9622083E-2,-1.53128775E-2,-5.249853E-2,-6.286936E-2],"split_indices":[12,0,13,0,13,12,12,13,3,0,0,0,12,0,12,0,0,0,0,0,0,0,0,0,0,0,0,0,0],"split_type":[0,0,0,0,0,0,0,0,0,0,0,0,0,0,0,0,0,0,0,0,0,0,0,0,0,0,0,0,0],"sum_hessian":[1.3001393E4,7.432493E3,5.5688994E3,6.925808E3,5.0668506E2,1.1837559E3,4.3851436E3,2.385645E3,4.540163E3,3.0499125E1,4.7618594E2,8.307839E2,3.5297205E2,1.6765077E3,2.708636E3,7.134759E2,1.6721691E3,4.4462354E3,9.392758E1,2.178497E2,2.5833624E2,7.662013E2,6.458257E1,1.0480786E2,2.4816417E2,7.728009E2,9.037068E2,5.7862787E2,2.130008E3],"tree_param":{"num_deleted":"0","num_feature":"15","num_nodes":"29","size_leaf_vector":"1"}},{"base_weights":[1.1322071E-3,5.196177E-1,-6.27106E-1,7.3887986E-1,-1.7833516E-1,8.9330174E-2,-8.624268E-1,8.642006E-1,-6.81893E-2,-7.410762E-1,1.7821468E-1,4.2358202E-1,-9.2270184E-1,-1.0040364E0,-5.0483936E-1,5.227484E-2,-2.7032938E-2,-3.6967304E-2,1.9740002E-2,-2.7281903E-2,-5.199277E-2,3.629214E-2,-6.439529E-2,-1.1002296E-2,4.049668E-2,-5.8546573E-2,-2.6959306E-2,-5.22409E-2,-6.268289E-2,-5.5519454E-2,3.4712024E-2],"categories":[],"categories_nodes":[],"categories_segments":[],"categories_sizes":[],"default_left":[0,0,0,0,0,0,0,0,0,0,0,0,0,0,0,0,0,0,0,0,0,0,0,0,0,0,0,0,0,0,0],"id":30,"left_children":[1,3,5,7,9,11,13,15,17,19,21,23,25,27,29,-1,-1,-1,-1,-1,-1,-1,-1,-1,-1,-1,-1,-1,-1,-1,-1],"loss_changes":[4.1137314E3,1.0602992E3,9.6387744E2,5.341692E2,3.334042E2,4.7862726E2,2.1388647E2,2.519773E2,1.6761882E2,2.4215271E1,5.925887E2,1.8294218E2,1.0916016E1,1.879126E1,6.2327905E2,0E0,0E0,0E0,0E0,0E0,0E0,0E0,0E0,0E0,0E0,0E0,0E0,0E0,0E0,0E0,0E0],"parents":[2147483647,0,0,1,1,2,2,3,3,4,4,5,5,6,6,7,7,8,8,9,9,10,10,11,11,12,12,13,13,14,14],"right_children":[2,4,6,8,10,12,14,16,18,20,22,24,26,28,30,-1,-1,-1,-1,-1,-1,-1,-1,-1,-1,-1,-1,-1,-1,-1,-1],"split_conditions":[-1.4142902E-1,3.416199E-1,-5.3809625E-1,4.4846693E-1,-6.1933935E-2,1.1551394E0,2.7471232E-1,1.0544091E0,-3.12213E-1,-8.073867E-1,9.169837E-1,-6.1933935E-2,8.026949E-1,7.722693E-1,-2.3635185E-1,5.227484E-2,-2.7032938E-2,-3.6967304E-2,1.9740002E-2,-2.7281903E-2,-5.199277E-2,3.629214E-2,-6.439529E-2,-1.1002296E-2,4.049668E-2,-5.8546573E-2,-2.6959306E-2,-5.22409E-2,-6.268289E-2,-5.5519454E-2,3.4712024E-2],"split_indices":[12,1,13,3,0,12,6,0,6,12,0,0,6,12,8,0,0,0,0,0,0,0,0,0,0,0,0,0,0,0,0],"split_type":[0,0,0,0,0,0,0,0,0,0,0,0,0,0,0,0,0,0,0,0,0,0,0,0,0,0,0,0,0,0,0],"sum_hessian":[1.2622956E4,6.917097E3,5.705859E3,5.264943E3,1.6521547E3,1.4097947E3,4.296064E3,4.558603E3,7.0633984E2,6.40933E2,1.01122174E3,1.0622848E3,3.4750986E2,3.0702212E3,1.2258428E3,4.42419E3,1.3441302E2,2.9557855E2,4.1076126E2,2.4690439E2,3.940286E2,7.521665E2,2.590552E2,3.2956955E2,7.327153E2,2.8355896E2,6.39509E1,1.4103444E3,1.659877E3,8.68817E2,3.570258E2],"tree_param":{"num_deleted":"0","num_feature":"15","num_nodes":"31","size_leaf_vector":"1"}},{"base_weights":[-4.081859E-3,3.9098936E-1,-7.9437983E-1,6.5360785E-1,-2.7161348E-1,1.9489165E-1,-8.964607E-1,8.160694E-1,-6.2207192E-2,-6.6584384E-1,1.6822137E-1,5.791086E-1,-7.534199E-1,-6.185058E-1,-1.0484383E0,4.944633E-2,-4.567044E-2,-4.2576585E-2,1.7231038E-2,-6.0695067E-2,-1.9205207E-2,1.9954178E-2,-5.963795E-2,1.7678343E-3,4.9744774E-2,-6.1225276E-2,-1.9791665E-2,-1.0506179E-2,-5.513442E-2,-5.1213343E-2,-6.1889492E-2],"categories":[],"categories_nodes":[],"categories_segments":[],"categories_sizes":[],"default_left":[0,0,0,0,0,0,0,0,0,0,0,0,0,0,0,0,0,0,0,0,0,0,0,0,0,0,0,0,0,0,0],"id":31,"left_children":[1,3,5,7,9,11,13,15,17,19,21,23,25,27,29,-1,-1,-1,-1,-1,-1,-1,-1,-1,-1,-1,-1,-1,-1,-1,-1],"loss_changes":[3.8313054E3,1.4243453E3,4.1464502E2,6.8268823E2,4.0376318E2,1.411423E2,1.5218481E2,3.115193E2,2.6563297E2,1.5442438E2,2.3425069E2,4.144201E1,1.0808525E1,1.9203656E2,3.0864258E0,0E0,0E0,0E0,0E0,0E0,0E0,0E0,0E0,0E0,0E0,0E0,0E0,0E0,0E0,0E0,0E0],"parents":[2147483647,0,0,1,1,2,2,3,3,4,4,5,5,6,6,7,7,8,8,9,9,10,10,11,11,12,12,13,13,14,14],"right_children":[2,4,6,8,10,12,14,16,18,20,22,24,26,28,30,-1,-1,-1,-1,-1,-1,-1,-1,-1,-1,-1,-1,-1,-1,-1,-1],"split_conditions":[2.5641245E-1,2.5166383E-1,-1.2179815E0,3.416199E-1,-9.900162E-2,1.1914988E0,7.9158026E-1,1.1353581E0,-1.4853053E-1,3.2192722E-2,9.621649E-1,1.5249912E-2,1.5249912E-2,2.955562E-2,-5.3809625E-1,4.944633E-2,-4.567044E-2,-4.2576585E-2,1.7231038E-2,-6.0695067E-2,-1.9205207E-2,1.9954178E-2,-5.963795E-2,1.7678343E-3,4.9744774E-2,-6.1225276E-2,-1.9791665E-2,-1.0506179E-2,-5.513442E-2,-5.1213343E-2,-6.1889492E-2],"split_indices":[12,2,13,1,5,12,12,0,0,0,0,0,0,13,13,0,0,0,0,0,0,0,0,0,0,0,0,0,0,0,0],"split_type":[0,0,0,0,0,0,0,0,0,0,0,0,0,0,0,0,0,0,0,0,0,0,0,0,0,0,0,0,0,0,0],"sum_hessian":[1.2262523E4,8.1754854E3,4.087038E3,5.8564834E3,2.3190022E3,3.8070648E2,3.7063315E3,4.774392E3,1.0820912E3,1.2236885E3,1.0953137E3,2.729212E2,1.0778526E2,1.3194329E3,2.386899E3,4.660066E3,1.143265E2,3.768965E2,7.0519464E2,5.6220496E2,6.614835E2,9.574834E2,1.3783034E2,9.5718124E1,1.7720308E2,5.6689747E1,5.109552E1,5.7824567E2,7.411872E2,3.2611133E2,2.0607876E3],"tree_param":{"num_deleted":"0","num_feature":"15","num_nodes":"31","size_leaf_vector":"1"}},{"base_weights":[-2.1209605E-3,5.296467E-1,-5.5738837E-1,7.540869E-1,-1.2306815E-1,1.5359494E-1,-8.0251086E-1,8.1561166E-1,-7.3945963E-1,-6.0744715E-1,1.9628648E-1,6.30686E-1,-4.8799866E-1,-5.17922E-1,-1.0101871E0,2.1187663E-2,5.657759E-2,2.3913214E-3,-5.8791757E-2,-6.1197888E-2,-2.3525085E-2,3.4270655E-2,-5.8019012E-2,3.9986122E-2,-6.815159E-2,-9.17286E-3,-5.504288E-2,-5.6700174E-2,-7.7422378E-3,-4.799906E-2,-6.1480787E-2],"categories":[],"categories_nodes":[],"categories_segments":[],"categories_sizes":[],"default_left":[0,0,0,0,0,0,0,0,0,0,0,0,0,0,0,0,0,0,0,0,0,0,0,0,0,0,0,0,0,0,0],"id":32,"left_children":[1,3,5,7,9,11,13,15,17,19,21,23,25,27,29,-1,-1,-1,-1,-1,-1,-1,-1,-1,-1,-1,-1,-1,-1,-1,-1],"loss_changes":[3.5175378E3,8.924535E2,1.0171737E3,4.1831226E2,2.4197601E2,4.5906467E2,2.5238965E2,3.1760718E2,4.070629E1,5.2735428E1,4.497407E2,9.837378E1,9.56998E1,3.2557556E2,1.8776611E1,0E0,0E0,0E0,0E0,0E0,0E0,0E0,0E0,0E0,0E0,0E0,0E0,0E0,0E0,0E0,0E0],"parents":[2147483647,0,0,1,1,2,2,3,3,4,4,5,5,6,6,7,7,8,8,9,9,10,10,11,11,12,12,13,13,14,14],"right_children":[2,4,6,8,10,12,14,16,18,20,22,24,26,28,30,-1,-1,-1,-1,-1,-1,-1,-1,-1,-1,-1,-1,-1,-1,-1,-1],"split_conditions":[-2.526315E-1,2.6663053E-1,-5.3809625E-1,1.0544091E0,-2.0518243E-2,6.0385704E-1,4.9140483E-1,-1.730035E-1,5.5045195E-2,-8.060176E-1,9.0192366E-1,1.1541834E0,1.3100123E0,1.5249912E-2,8.284608E-1,2.1187663E-2,5.657759E-2,2.3913214E-3,-5.8791757E-2,-6.1197888E-2,-2.3525085E-2,3.4270655E-2,-5.8019012E-2,3.9986122E-2,-6.815159E-2,-9.17286E-3,-5.504288E-2,-5.6700174E-2,-7.7422378E-3,-4.799906E-2,-6.1480787E-2],"split_indices":[12,2,13,0,0,12,12,0,13,7,0,0,12,0,12,0,0,0,0,0,0,0,0,0,0,0,0,0,0,0,0],"split_type":[0,0,0,0,0,0,0,0,0,0,0,0,0,0,0,0,0,0,0,0,0,0,0,0,0,0,0,0,0,0,0],"sum_hessian":[1.1906008E4,6.0804756E3,5.8255317E3,4.5258716E3,1.554604E3,1.492368E3,4.333164E3,4.349176E3,1.7669563E2,6.182652E2,9.3633875E2,8.5720624E2,6.351618E2,1.8358668E3,2.497297E3,1.1705676E3,3.1786082E3,4.5894066E1,1.3080156E2,1.8298175E2,4.3528345E2,7.057851E2,2.3055368E2,8.3166327E2,2.5542955E1,3.7640366E2,2.5875812E2,8.2708093E2,1.0087859E3,6.0237885E2,1.8949183E3],"tree_param":{"num_deleted":"0","num_feature":"15","num_nodes":"31","size_leaf_vector":"1"}},{"base_weights":[-3.8963032E-3,4.5777607E-1,-6.0586965E-1,8.827368E-1,9.80492E-2,1.3612536E-1,-8.039393E-1,9.0425974E-1,-7.4415576E-1,-4.663661E-1,5.445265E-1,5.5941135E-1,-5.3233826E-1,-5.112514E-1,-1.0085788E0,5.865595E-2,4.1417353E-2,-7.6588816E-3,-6.2415574E-2,-5.210277E-2,-7.5673615E-3,-6.8864543E-3,4.4529125E-2,3.7539195E-2,-5.822462E-2,-9.734965E-3,-5.3358175E-2,-5.524326E-2,-8.876341E-3,-4.7402393E-2,-6.107749E-2],"categories":[],"categories_nodes":[],"categories_segments":[],"categories_sizes":[],"default_left":[0,0,0,0,0,0,0,0,0,0,0,0,0,0,0,0,0,0,0,0,0,0,0,0,0,0,0,0,0,0,0],"id":33,"left_children":[1,3,5,7,9,11,13,15,17,19,21,23,25,27,29,-1,-1,-1,-1,-1,-1,-1,-1,-1,-1,-1,-1,-1,-1,-1,-1],"loss_changes":[3.2318523E3,1.00416174E3,7.432711E2,1.0801636E2,9.003183E2,3.0239435E2,2.3491943E2,5.7222656E1,6.111931E0,2.2863318E2,3.0146075E2,9.484166E1,5.6836372E1,2.607504E2,1.604248E1,0E0,0E0,0E0,0E0,0E0,0E0,0E0,0E0,0E0,0E0,0E0,0E0,0E0,0E0,0E0,0E0],"parents":[2147483647,0,0,1,1,2,2,3,3,4,4,5,5,6,6,7,7,8,8,9,9,10,10,11,11,12,12,13,13,14,14],"right_children":[2,4,6,8,10,12,14,16,18,20,22,24,26,28,30,-1,-1,-1,-1,-1,-1,-1,-1,-1,-1,-1,-1,-1,-1,-1,-1],"split_conditions":[-1.0062405E-1,-1.1238226E-1,-6.9525903E-1,1.1937164E0,2.5791211E-2,7.5388736E-1,5.84445E-1,-6.720261E-1,1.3330243E0,6.231331E-2,-1.9747646E-1,1.0544091E0,1.3100123E0,-2.0518243E-2,8.669038E-1,5.865595E-2,4.1417353E-2,-7.6588816E-3,-6.2415574E-2,-5.210277E-2,-7.5673615E-3,-6.8864543E-3,4.4529125E-2,3.7539195E-2,-5.822462E-2,-9.734965E-3,-5.3358175E-2,-5.524326E-2,-8.876341E-3,-4.7402393E-2,-6.107749E-2],"split_indices":[12,9,13,0,5,12,12,9,0,0,0,0,12,0,12,0,0,0,0,0,0,0,0,0,0,0,0,0,0,0,0],"split_type":[0,0,0,0,0,0,0,0,0,0,0,0,0,0,0,0,0,0,0,0,0,0,0,0,0,0,0,0,0,0,0],"sum_hessian":[1.1621517E4,6.576355E3,5.0451616E3,3.0107915E3,3.5655635E3,1.0617217E3,3.9834397E3,2.9738025E3,3.6988937E1,1.5733259E3,1.9922375E3,6.517062E2,4.100155E2,1.6467512E3,2.3366885E3,1.8484175E3,1.1253851E3,1.6280945E1,2.0707994E1,6.797022E2,8.9362366E2,5.0591623E2,1.4863214E3,6.18762E2,3.294417E1,2.169553E2,1.9306021E2,7.2893866E2,9.1781256E2,5.03591E2,1.8330975E3],"tree_param":{"num_deleted":"0","num_feature":"15","num_nodes":"31","size_leaf_vector":"1"}},{"base_weights":[-3.764192E-3,3.682472E-1,-7.1351653E-1,4.938349E-1,-9.022323E-1,-1.798169E-1,-9.22605E-1,-1.2069632E-1,8.485084E-1,-5.20353E-1,-6.9604486E-2,1.4461678E-1,-8.702525E-1,-6.903335E-1,-5.9857983E-2,4.352178E-2,-2.1685073E-2,4.941388E-3,5.616528E-2,-6.437298E-2,-2.6098469E-3,-2.9104542E-2,2.866221E-2,-0E0,-5.2713394E-2,-1.7628388E-2,-5.6667995E-2],"categories":[],"categories_nodes":[],"categories_segments":[],"categories_sizes":[],"default_left":[0,0,0,0,0,0,0,0,0,0,0,0,0,0,0,0,0,0,0,0,0,0,0,0,0,0,0],"id":34,"left_children":[1,3,5,7,9,11,13,15,17,19,-1,21,23,25,-1,-1,-1,-1,-1,-1,-1,-1,-1,-1,-1,-1,-1],"loss_changes":[2.9909648E3,1.186384E3,4.3267126E2,1.4757677E3,7.2875916E1,2.484766E2,6.9253174E1,5.5240283E2,4.0479297E2,8.401645E1,0E0,1.7235692E2,1.1883026E1,1.01978424E2,0E0,0E0,0E0,0E0,0E0,0E0,0E0,0E0,0E0,0E0,0E0,0E0,0E0],"parents":[2147483647,0,0,1,1,2,2,3,3,4,4,5,5,6,6,7,7,8,8,9,9,11,11,12,12,13,13],"right_children":[2,4,6,8,10,12,14,16,18,20,-1,22,24,26,-1,-1,-1,-1,-1,-1,-1,-1,-1,-1,-1,-1,-1],"split_conditions":[1.8663582E-1,9.621649E-1,-4.565397E-1,-2.0518243E-2,1.2144241E0,1.1551394E0,6.9754845E-1,-3.672456E-1,-6.4053065E-1,-2.0375161E-1,-6.9604486E-2,-8.0759265E-2,-2.1467218E0,2.3975873E-1,-5.9857983E-2,4.352178E-2,-2.1685073E-2,4.941388E-3,5.616528E-2,-6.437298E-2,-2.6098469E-3,-2.9104542E-2,2.866221E-2,-0E0,-5.2713394E-2,-1.7628388E-2,-5.6667995E-2],"split_indices":[12,0,13,0,0,12,12,13,6,6,0,0,13,13,0,0,0,0,0,0,0,0,0,0,0,0,0],"split_type":[0,0,0,0,0,0,0,0,0,0,0,0,0,0,0,0,0,0,0,0,0,0,0,0,0,0,0],"sum_hessian":[1.13193545E4,7.4264517E3,3.8929026E3,6.7612524E3,6.6519904E2,1.0994706E3,2.793432E3,2.4735803E3,4.2876724E3,3.004883E2,3.6471075E2,7.483962E2,3.5107443E2,9.317457E2,1.8616862E3,5.555091E2,1.9180712E3,6.0262366E2,3.6850486E3,1.3016245E2,1.7032587E2,2.6122778E2,4.871684E2,1.8094395E1,3.3298004E2,4.0616376E2,5.25582E2],"tree_param":{"num_deleted":"0","num_feature":"15","num_nodes":"27","size_leaf_vector":"1"}},{"base_weights":[-2.3847101E-3,4.9273127E-1,-7.5291497E-1,7.972224E-1,-3.316713E-2,-2.2646959E-1,-8.9375746E-1,9.73093E-1,4.7627375E-1,-6.341464E-1,3.4079286E-1,2.7942821E-2,-8.6731935E-1,-6.7219675E-1,-6.012245E-2,5.678984E-2,-2.532763E-2,-7.0181647E-3,4.0396903E-2,3.2153673E-2,-4.68275E-2,4.382463E-2,-5.9991863E-2,1.1485144E-2,-6.260649E-2,-2.3463503E-2,-5.646643E-2,-2.4115404E-2,-5.628251E-2],"categories":[],"categories_nodes":[],"categories_segments":[],"categories_sizes":[],"default_left":[0,0,0,0,0,0,0,0,0,0,0,0,0,0,0,0,0,0,0,0,0,0,0,0,0,0,0,0,0],"id":35,"left_children":[1,3,5,7,9,11,13,15,17,19,21,23,25,27,-1,-1,-1,-1,-1,-1,-1,-1,-1,-1,-1,-1,-1,-1,-1],"loss_changes":[4.073869E3,1.0586398E3,3.2089062E2,2.3257642E2,5.4568896E2,1.5232193E2,1.0748096E2,4.189087E1,2.0011227E2,1.9816144E2,8.644609E2,1.2588833E2,1.022406E1,1.0340985E2,0E0,0E0,0E0,0E0,0E0,0E0,0E0,0E0,0E0,0E0,0E0,0E0,0E0,0E0,0E0],"parents":[2147483647,0,0,1,1,2,2,3,3,4,4,5,5,6,6,7,7,8,8,9,9,10,10,11,11,12,12,13,13],"right_children":[2,4,6,8,10,12,14,16,18,20,22,24,26,28,-1,-1,-1,-1,-1,-1,-1,-1,-1,-1,-1,-1,-1,-1,-1],"split_conditions":[2.573389E-1,9.6265174E-2,-3.0806124E-1,-4.4919792E-1,1.5249912E-2,9.977676E-1,8.316057E-1,1.2746654E0,-2.6901275E-1,-1.1380835E0,9.0192366E-1,9.4710433E-1,1.1038371E0,6.3755774E-1,-6.012245E-2,5.678984E-2,-2.532763E-2,-7.0181647E-3,4.0396903E-2,3.2153673E-2,-4.68275E-2,4.382463E-2,-5.9991863E-2,1.1485144E-2,-6.260649E-2,-2.3463503E-2,-5.646643E-2,-2.4115404E-2,-5.628251E-2],"split_indices":[4,14,14,4,0,4,4,0,0,4,0,0,4,14,0,0,0,0,0,0,0,0,0,0,0,0,0,0,0],"split_type":[0,0,0,0,0,0,0,0,0,0,0,0,0,0,0,0,0,0,0,0,0,0,0,0,0,0,0,0,0],"sum_hessian":[1.0955395E4,6.600432E3,4.3549624E3,4.180765E3,2.419667E3,9.2314636E2,3.4318162E3,2.693572E3,1.4871931E3,9.286758E2,1.4909913E3,6.61519E2,2.6162735E2,1.3826718E3,2.0491445E3,2.6758325E3,1.7739311E1,4.0318268E2,1.0840105E3,1.1809889E2,8.105769E2,1.1461416E3,3.4484967E2,5.7686053E2,8.465848E1,5.6118538E1,2.0550882E2,7.5773206E2,6.249397E2],"tree_param":{"num_deleted":"0","num_feature":"15","num_nodes":"29","size_leaf_vector":"1"}},{"base_weights":[-6.569793E-3,3.1131396E-1,-7.601974E-1,8.3212215E-1,1.321722E-2,-2.3475218E-1,-9.391485E-1,9.4884026E-1,5.3622466E-1,-5.3318495E-1,4.616984E-1,4.040522E-2,-9.219816E-1,-7.1403086E-1,-5.974513E-2,4.497201E-2,5.8320235E-2,4.763618E-2,-9.678828E-3,-5.2195318E-2,-7.747498E-3,-2.2272838E-2,5.332007E-2,-2.3680668E-2,3.1026417E-2,-5.5585004E-2,-1.4871651E-2,-5.241983E-2,-1.1888008E-2],"categories":[],"categories_nodes":[],"categories_segments":[],"categories_sizes":[],"default_left":[0,0,0,0,0,0,0,0,0,0,0,0,0,0,0,0,0,0,0,0,0,0,0,0,0,0,0,0,0],"id":36,"left_children":[1,3,5,7,9,11,13,15,17,19,21,23,25,27,-1,-1,-1,-1,-1,-1,-1,-1,-1,-1,-1,-1,-1,-1,-1],"loss_changes":[2.5565127E3,1.163529E3,2.953379E2,9.046008E1,1.1712136E3,1.5470526E2,4.579785E1,1.51171875E1,1.6056023E2,3.1668396E2,1.0296611E3,1.309368E2,3.7549896E0,6.851541E1,0E0,0E0,0E0,0E0,0E0,0E0,0E0,0E0,0E0,0E0,0E0,0E0,0E0,0E0,0E0],"parents":[2147483647,0,0,1,1,2,2,3,3,4,4,5,5,6,6,7,7,8,8,9,9,10,10,11,11,12,12,13,13],"right_children":[2,4,6,8,10,12,14,16,18,20,22,24,26,28,-1,-1,-1,-1,-1,-1,-1,-1,-1,-1,-1,-1,-1,-1,-1],"split_conditions":[5.447135E-1,-2.8333792E-1,-5.3809625E-1,-7.720527E-2,5.51043E-3,1.061451E0,7.984913E-1,-5.71178E-1,-7.8212434E-1,-1.1345972E-1,-5.2885187E-1,1.2915179E-2,1.474638E0,3.55975E-1,-5.974513E-2,4.497201E-2,5.8320235E-2,4.763618E-2,-9.678828E-3,-5.2195318E-2,-7.747498E-3,-2.2272838E-2,5.332007E-2,-2.3680668E-2,3.1026417E-2,-5.5585004E-2,-1.4871651E-2,-5.241983E-2,-1.1888008E-2],"split_indices":[14,9,13,14,6,14,14,6,13,5,8,5,6,6,0,0,0,0,0,0,0,0,0,0,0,0,0,0,0],"split_type":[0,0,0,0,0,0,0,0,0,0,0,0,0,0,0,0,0,0,0,0,0,0,0,0,0,0,0,0,0],"sum_hessian":[1.06621455E4,7.4990825E3,3.163063E3,2.7259016E3,4.7731807E3,8.075414E2,2.3555217E3,1.946103E3,7.797986E2,2.1499863E3,2.6231946E3,5.774334E2,2.3010794E2,7.147107E2,1.640811E3,5.332856E2,1.4128174E3,5.539615E2,2.2583711E2,1.1104172E3,1.0395691E3,9.2428705E2,1.6989076E3,3.0167294E2,2.7576047E2,2.134185E2,1.668943E1,5.134698E2,2.0124089E2],"tree_param":{"num_deleted":"0","num_feature":"15","num_nodes":"29","size_leaf_vector":"1"}},{"base_weights":[-4.6144687E-3,4.6381655E-1,-5.016905E-1,6.898234E-1,-1.24941066E-1,7.993994E-2,-7.542338E-1,7.4972576E-1,-6.2957776E-1,1.4877143E-2,-6.535873E-2,4.4841444E-1,-5.731253E-1,-9.4105417E-1,-3.9658782E-1,2.1966986E-2,5.3609587E-2,-1.2886211E-2,-6.8595685E-2,-3.0979298E-2,2.8990509E-2,3.142922E-2,-6.1266214E-2,-1.4547994E-2,-5.3622633E-2,-5.9384193E-2,-4.2470727E-2,-5.0755505E-2,3.0268785E-2],"categories":[],"categories_nodes":[],"categories_segments":[],"categories_sizes":[],"default_left":[0,0,0,0,0,0,0,0,0,0,0,0,0,0,0,0,0,0,0,0,0,0,0,0,0,0,0,0,0],"id":37,"left_children":[1,3,5,7,9,11,13,15,17,19,-1,21,23,25,27,-1,-1,-1,-1,-1,-1,-1,-1,-1,-1,-1,-1,-1,-1],"loss_changes":[2.4169666E3,7.11973E2,7.4108435E2,3.0704248E2,2.104368E2,3.6798914E2,2.3167688E2,2.4099707E2,3.5369987E1,3.5123013E2,0E0,1.4291527E2,6.0429596E1,3.635205E1,5.414223E2,0E0,0E0,0E0,0E0,0E0,0E0,0E0,0E0,0E0,0E0,0E0,0E0,0E0,0E0],"parents":[2147483647,0,0,1,1,2,2,3,3,4,4,5,5,6,6,7,7,8,8,9,9,11,11,12,12,13,13,14,14],"right_children":[2,4,6,8,10,12,14,16,18,20,-1,22,24,26,28,-1,-1,-1,-1,-1,-1,-1,-1,-1,-1,-1,-1,-1,-1],"split_conditions":[-2.526315E-1,2.5166383E-1,-4.434151E-1,1.0544091E0,9.9793315E-1,7.5388736E-1,9.315576E-2,3.2192722E-2,1.3141989E0,3.2192722E-2,-6.535873E-2,1.0732344E0,1.326857E0,1.6860817E-1,-2.2260083E-1,2.1966986E-2,5.3609587E-2,-1.2886211E-2,-6.8595685E-2,-3.0979298E-2,2.8990509E-2,3.142922E-2,-6.1266214E-2,-1.4547994E-2,-5.3622633E-2,-5.9384193E-2,-4.2470727E-2,-5.0755505E-2,3.0268785E-2],"split_indices":[12,2,13,0,0,12,6,0,0,0,0,0,12,5,8,0,0,0,0,0,0,0,0,0,0,0,0,0,0],"split_type":[0,0,0,0,0,0,0,0,0,0,0,0,0,0,0,0,0,0,0,0,0,0,0,0,0,0,0,0,0],"sum_hessian":[1.0373204E4,5.3391313E3,5.0340728E3,3.8594343E3,1.479697E3,1.5230458E3,3.511027E3,3.694226E3,1.6520837E2,1.3009491E3,1.7874791E2,9.757284E2,5.473174E2,2.3001274E3,1.2108997E3,1.2107312E3,2.4834949E3,9.978876E1,6.541961E1,6.0874805E2,6.922011E2,9.203343E2,5.539412E1,2.9264267E2,2.5467473E2,1.5996755E3,7.0045184E2,7.957037E2,4.1519604E2],"tree_param":{"num_deleted":"0","num_feature":"15","num_nodes":"29","size_leaf_vector":"1"}},{"base_weights":[-1.0498014E-3,2.8637427E-1,-7.5196415E-1,7.519358E-1,-2.1101417E-2,-3.0372483E-1,-9.4595397E-1,4.1288066E-1,9.108166E-1,-4.966257E-1,4.107622E-1,1.9120518E-2,-8.4340125E-1,-7.260792E-1,-5.9592355E-2,4.7565892E-2,-3.6435693E-3,3.3726867E-2,5.684242E-2,-5.314352E-2,-1.5596365E-2,-3.0085508E-2,4.058656E-2,1.1268028E-2,-5.4773476E-2,-2.9135963E-2,-5.6223873E-2,-2.0652458E-2,-5.7139914E-2],"categories":[],"categories_nodes":[],"categories_segments":[],"categories_sizes":[],"default_left":[0,0,0,0,0,0,0,0,0,0,0,0,0,0,0,0,0,0,0,0,0,0,0,0,0,0,0,0,0],"id":38,"left_children":[1,3,5,7,9,11,13,15,17,19,21,23,25,27,-1,-1,-1,-1,-1,-1,-1,-1,-1,-1,-1,-1,-1,-1,-1],"loss_changes":[2.1887954E3,1.0504358E3,2.4141699E2,1.5404309E2,9.077217E2,1.5022507E2,3.203662E1,1.8507056E2,4.3504883E1,1.9952954E2,6.315478E2,9.0982216E1,1.0477875E1,5.188147E1,0E0,0E0,0E0,0E0,0E0,0E0,0E0,0E0,0E0,0E0,0E0,0E0,0E0,0E0,0E0],"parents":[2147483647,0,0,1,1,2,2,3,3,4,4,5,5,6,6,7,7,8,8,9,9,10,10,11,11,12,12,13,13],"right_children":[2,4,6,8,10,12,14,16,18,20,22,24,26,28,-1,-1,-1,-1,-1,-1,-1,-1,-1,-1,-1,-1,-1,-1,-1],"split_conditions":[3.9789787E-1,-1.5410756E-1,-4.1780412E-1,-4.8958367E-1,9.315576E-2,1.1551394E0,7.9158026E-1,-8.907259E-1,-1.2594017E-1,-6.1092407E-1,-1.4853053E-1,8.8874596E-1,1.4079107E0,2.53219E-1,-5.9592355E-2,4.7565892E-2,-3.6435693E-3,3.3726867E-2,5.684242E-2,-5.314352E-2,-1.5596365E-2,-3.0085508E-2,4.058656E-2,1.1268028E-2,-5.4773476E-2,-2.9135963E-2,-5.6223873E-2,-2.0652458E-2,-5.7139914E-2],"split_indices":[12,9,13,6,6,12,12,9,0,7,0,0,12,13,0,0,0,0,0,0,0,0,0,0,0,0,0,0,0],"split_type":[0,0,0,0,0,0,0,0,0,0,0,0,0,0,0,0,0,0,0,0,0,0,0,0,0,0,0,0,0],"sum_hessian":[1.013153E4,7.3271396E3,2.8043906E3,2.9142778E3,4.412862E3,8.5187604E2,1.9525146E3,9.365594E2,1.9777184E3,2.1015833E3,2.3112783E3,5.333936E2,3.184824E2,5.6290076E2,1.3896139E3,5.029326E2,4.336268E2,3.7266696E2,1.6050515E3,7.263537E2,1.3752296E3,5.498905E2,1.7613878E3,4.5479556E2,7.859806E1,9.600236E1,2.2248003E2,2.402443E2,3.226565E2],"tree_param":{"num_deleted":"0","num_feature":"15","num_nodes":"29","size_leaf_vector":"1"}},{"base_weights":[-3.681786E-3,4.399698E-1,-7.2594446E-1,7.398848E-1,-2.7433326E-2,-2.0107614E-1,-8.6409354E-1,9.017838E-1,3.848443E-1,-5.90541E-1,3.2173952E-1,5.9158288E-2,-7.580675E-1,-6.327864E-1,-5.87484E-2,5.275964E-2,-3.484903E-2,-8.781977E-3,3.6580592E-2,1.5519235E-2,-4.473847E-2,4.1443743E-2,-5.3283885E-2,1.3539074E-2,-6.262349E-2,-2.5496919E-2,-5.53284E-2,-2.3341998E-2,-5.4899834E-2],"categories":[],"categories_nodes":[],"categories_segments":[],"categories_sizes":[],"default_left":[0,0,0,0,0,0,0,0,0,0,0,0,0,0,0,0,0,0,0,0,0,0,0,0,0,0,0,0,0],"id":39,"left_children":[1,3,5,7,9,11,13,15,17,19,21,23,25,27,-1,-1,-1,-1,-1,-1,-1,-1,-1,-1,-1,-1,-1,-1,-1],"loss_changes":[3.1629316E3,8.579756E2,2.7031604E2,2.1116675E2,4.710671E2,1.1553921E2,1.0088818E2,4.8153564E1,1.579383E2,1.4672443E2,7.2947705E2,1.0778447E2,1.2652786E1,8.378009E1,0E0,0E0,0E0,0E0,0E0,0E0,0E0,0E0,0E0,0E0,0E0,0E0,0E0,0E0,0E0],"parents":[2147483647,0,0,1,1,2,2,3,3,4,4,5,5,6,6,7,7,8,8,9,9,10,10,11,11,12,12,13,13],"right_children":[2,4,6,8,10,12,14,16,18,20,22,24,26,28,-1,-1,-1,-1,-1,-1,-1,-1,-1,-1,-1,-1,-1,-1,-1],"split_conditions":[2.8974718E-1,-2.526315E-1,-6.7077696E-1,-3.147658E-1,-2.0518243E-2,9.5337313E-1,8.316057E-1,1.2934906E0,-3.7533668E-1,-9.6311104E-1,8.755683E-1,9.4710433E-1,1.1742722E0,5.11563E-1,-5.87484E-2,5.275964E-2,-3.484903E-2,-8.781977E-3,3.6580592E-2,1.5519235E-2,-4.473847E-2,4.1443743E-2,-5.3283885E-2,1.3539074E-2,-6.262349E-2,-2.5496919E-2,-5.53284E-2,-2.3341998E-2,-5.4899834E-2],"split_indices":[4,12,12,4,0,4,4,0,5,4,0,0,4,12,0,0,0,0,0,0,0,0,0,0,0,0,0,0,0],"split_type":[0,0,0,0,0,0,0,0,0,0,0,0,0,0,0,0,0,0,0,0,0,0,0,0,0,0,0,0,0],"sum_hessian":[9.862872E3,6.109467E3,3.7534055E3,3.7221677E3,2.3872993E3,7.859165E2,2.967489E3,2.550163E3,1.1720046E3,9.143973E2,1.4729021E3,5.359584E2,2.4995813E2,1.1934987E3,1.7739904E3,2.532339E3,1.7824038E1,3.69597E2,8.0240765E2,1.59829E2,7.545683E2,1.1192982E3,3.5360385E2,4.6809607E2,6.786228E1,1.0371599E2,1.4624214E2,7.0142865E2,4.9207007E2],"tree_param":{"num_deleted":"0","num_feature":"15","num_nodes":"29","size_leaf_vector":"1"}},{"base_weights":[-6.977386E-4,4.1648126E-1,-7.181244E-1,7.3260343E-1,-0E0,-4.1903296E-1,-9.636794E-1,8.8288784E-1,3.415306E-1,-5.2103823E-1,3.76422E-1,-1.8463565E-1,-9.4048095E-1,-6.385934E-1,-5.901155E-2,5.5584237E-2,3.9494503E-2,-1.4867289E-2,3.2414358E-2,1.8394137E-2,-4.333058E-2,-2.5589414E-2,4.75252E-2,-3.5317414E-2,1.16172945E-2,-4.166596E-2,-5.9714787E-2,-1.8526988E-2,-5.466658E-2],"categories":[],"categories_nodes":[],"categories_segments":[],"categories_sizes":[],"default_left":[0,0,0,0,0,0,0,0,0,0,0,0,0,0,0,0,0,0,0,0,0,0,0,0,0,0,0,0,0],"id":40,"left_children":[1,3,5,7,9,11,13,15,17,19,21,23,25,27,-1,-1,-1,-1,-1,-1,-1,-1,-1,-1,-1,-1,-1,-1,-1],"loss_changes":[2.8691775E3,7.982268E2,2.5562292E2,1.9976807E2,5.140594E2,1.9314648E2,3.207495E1,3.4879883E1,1.27933624E2,2.1322107E2,5.5845056E2,1.8361398E2,5.1327515E0,2.7179794E1,0E0,0E0,0E0,0E0,0E0,0E0,0E0,0E0,0E0,0E0,0E0,0E0,0E0,0E0,0E0],"parents":[2147483647,0,0,1,1,2,2,3,3,4,4,5,5,6,6,7,7,8,8,9,9,10,10,11,11,12,12,13,13],"right_children":[2,4,6,8,10,12,14,16,18,20,22,24,26,28,-1,-1,-1,-1,-1,-1,-1,-1,-1,-1,-1,-1,-1,-1,-1],"split_conditions":[3.2329327E-1,-3.448733E-1,8.567405E-1,-2.3251435E-1,-2.8456026E-1,4.7255662E-1,-6.619174E-1,-6.213298E-1,-5.2480775E-1,-9.0747166E-1,-5.7792026E-1,-2.8456026E-1,9.7561604E-1,1.1646667E0,-5.901155E-2,5.5584237E-2,3.9494503E-2,-1.4867289E-2,3.2414358E-2,1.8394137E-2,-4.333058E-2,-2.5589414E-2,4.75252E-2,-3.5317414E-2,1.16172945E-2,-4.166596E-2,-5.9714787E-2,-1.8526988E-2,-5.466658E-2],"split_indices":[4,12,4,4,5,12,12,4,5,4,7,5,12,4,0,0,0,0,0,0,0,0,0,0,0,0,0,0,0],"split_type":[0,0,0,0,0,0,0,0,0,0,0,0,0,0,0,0,0,0,0,0,0,0,0,0,0,0,0,0,0],"sum_hessian":[9.578338E3,6.056155E3,3.522183E3,3.4422703E3,2.6138843E3,1.5946558E3,1.9275273E3,2.4810266E3,9.612436E2,1.0964729E3,1.5174115E3,1.1051238E3,4.8953192E2,3.0292337E2,1.624604E3,1.7567434E3,7.242832E2,2.561874E2,7.0505615E2,2.3368115E2,8.6279175E2,5.3413434E2,9.832771E2,5.2537897E2,5.797449E2,1.5996475E2,3.2956717E2,1.5475859E2,1.481648E2],"tree_param":{"num_deleted":"0","num_feature":"15","num_nodes":"29","size_leaf_vector":"1"}},{"base_weights":[-4.3959673E-3,2.825942E-1,-5.236243E-1,5.4852235E-1,-2.0350406E-1,-7.7197516E-1,-1.2717369E-1,1.1546421E-1,7.408284E-1,-5.780826E-1,1.6724253E-1,-1.0072771E0,-6.1348206E-1,-7.22721E-1,6.5538555E-1,3.5329748E-2,-1.9218765E-2,4.298581E-3,5.276203E-2,-4.8025765E-2,-1.0560443E-2,-3.858104E-2,4.8430387E-2,-6.267876E-2,-5.158626E-2,-4.3820336E-2,2.2127023E-2,-5.0430425E-2,-1.9352788E-2,5.143466E-3,6.757177E-2],"categories":[],"categories_nodes":[],"categories_segments":[],"categories_sizes":[],"default_left":[0,0,0,0,0,0,0,0,0,0,0,0,0,0,0,0,0,0,0,0,0,0,0,0,0,0,0,0,0,0,0],"id":41,"left_children":[1,3,5,7,9,11,13,15,17,19,21,23,25,27,29,-1,-1,-1,-1,-1,-1,-1,-1,-1,-1,-1,-1,-1,-1,-1,-1],"loss_changes":[1.3913179E3,7.7775916E2,3.257354E2,3.2225952E2,2.961206E2,7.17699E1,6.0133746E2,2.6849277E2,3.0827747E2,1.04321045E2,6.01829E2,1.203064E0,1.8004193E2,4.0128204E1,1.6020654E2,0E0,0E0,0E0,0E0,0E0,0E0,0E0,0E0,0E0,0E0,0E0,0E0,0E0,0E0,0E0,0E0],"parents":[2147483647,0,0,1,1,2,2,3,3,4,4,5,5,6,6,7,7,8,8,9,9,10,10,11,11,12,12,13,13,14,14],"right_children":[2,4,6,8,10,12,14,16,18,20,22,24,26,28,30,-1,-1,-1,-1,-1,-1,-1,-1,-1,-1,-1,-1,-1,-1,-1,-1],"split_conditions":[2.1168634E-1,1.48579255E-2,3.893374E-2,-3.984705E-1,-1.2658212E-1,-5.936407E-1,-3.855196E-1,-9.11352E-1,-8.5627425E-1,2.8103974E-1,-3.855196E-1,-1.2764832E0,8.5326E-1,-1.0071305E0,6.81091E-1,3.5329748E-2,-1.9218765E-2,4.298581E-3,5.276203E-2,-4.8025765E-2,-1.0560443E-2,-3.858104E-2,4.8430387E-2,-6.267876E-2,-5.158626E-2,-4.3820336E-2,2.2127023E-2,-5.0430425E-2,-1.9352788E-2,5.143466E-3,6.757177E-2],"split_indices":[3,1,5,5,5,8,7,9,7,10,7,8,10,7,5,0,0,0,0,0,0,0,0,0,0,0,0,0,0,0,0],"split_type":[0,0,0,0,0,0,0,0,0,0,0,0,0,0,0,0,0,0,0,0,0,0,0,0,0,0,0,0,0,0,0],"sum_hessian":[9.327915E3,6.0066787E3,3.3212368E3,3.8842263E3,2.1224524E3,2.0378961E3,1.2833406E3,1.1983446E3,2.6858818E3,1.0567366E3,1.0657157E3,8.0941345E2,1.2284827E3,7.2991693E2,5.534237E2,5.6958905E2,6.2875555E2,5.5606305E2,2.1298186E3,6.392014E2,4.1753516E2,4.7396747E2,5.917482E2,4.555647E2,3.5384875E2,1.0739978E3,1.5448491E2,5.199562E2,2.0996077E2,2.667169E2,2.8670682E2],"tree_param":{"num_deleted":"0","num_feature":"15","num_nodes":"31","size_leaf_vector":"1"}},{"base_weights":[-2.6260063E-3,3.785008E-1,-7.0579606E-1,4.8668614E-1,-8.1844276E-1,-4.1681457E-1,-9.443733E-1,-5.5296794E-2,8.275656E-1,1.03376545E-1,-9.713386E-1,-1.8965626E-1,-9.4393116E-1,-5.094341E-1,-9.88208E-1,2.8178066E-2,-2.8680293E-2,-2.8751114E-2,5.1770803E-2,3.337542E-2,-3.8173303E-2,-7.010285E-2,-3.781049E-2,-9.598655E-4,-6.275037E-2,-3.7622627E-2,-5.8775768E-2,-3.4249276E-3,-5.1180676E-2,-4.7359876E-2,-5.9073117E-2],"categories":[],"categories_nodes":[],"categories_segments":[],"categories_sizes":[],"default_left":[0,0,0,0,0,0,0,0,0,0,0,0,0,0,0,0,0,0,0,0,0,0,0,0,0,0,0,0,0,0,0],"id":42,"left_children":[1,3,5,7,9,11,13,15,17,19,21,23,25,27,29,-1,-1,-1,-1,-1,-1,-1,-1,-1,-1,-1,-1,-1,-1,-1,-1],"loss_changes":[2.4535518E3,7.693616E2,2.1867212E2,1.0073916E3,7.092105E1,1.7312715E2,2.9714233E1,5.05452E2,3.081101E2,2.7181448E1,2.7258057E1,1.5815814E2,4.9032288E0,2.7464535E1,3.902588E0,0E0,0E0,0E0,0E0,0E0,0E0,0E0,0E0,0E0,0E0,0E0,0E0,0E0,0E0,0E0,0E0],"parents":[2147483647,0,0,1,1,2,2,3,3,4,4,5,5,6,6,7,7,8,8,9,9,10,10,11,11,12,12,13,13,14,14],"right_children":[2,4,6,8,10,12,14,16,18,20,22,24,26,28,30,-1,-1,-1,-1,-1,-1,-1,-1,-1,-1,-1,-1,-1,-1,-1,-1],"split_conditions":[3.5658365E-1,9.621649E-1,8.686699E-1,3.2192722E-2,-9.191746E-1,6.3755774E-1,-7.2032714E-1,-1.4198086E-1,-1.1080753E0,3.539337E-1,5.51043E-3,9.621649E-1,8.2850075E-1,1.1255796E0,3.0995253E-2,2.8178066E-2,-2.8680293E-2,-2.8751114E-2,5.1770803E-2,3.337542E-2,-3.8173303E-2,-7.010285E-2,-3.781049E-2,-9.598655E-4,-6.275037E-2,-3.7622627E-2,-5.8775768E-2,-3.4249276E-3,-5.1180676E-2,-4.7359876E-2,-5.9073117E-2],"split_indices":[4,0,4,0,4,14,14,14,6,14,6,0,14,4,14,0,0,0,0,0,0,0,0,0,0,0,0,0,0,0,0],"split_type":[0,0,0,0,0,0,0,0,0,0,0,0,0,0,0,0,0,0,0,0,0,0,0,0,0,0,0,0,0,0,0],"sum_hessian":[9.146749E3,5.9313936E3,3.215355E3,5.442627E3,4.8876663E2,1.4609061E3,1.754449E3,2.1009172E3,3.34171E3,6.8374054E1,4.2039258E2,1.0259869E3,4.3491916E2,1.674438E2,1.5870051E3,9.4016504E2,1.1607522E3,1.6336957E2,3.1783403E3,4.382718E1,2.4546877E1,2.3003671E2,1.9035587E2,8.6426373E2,1.6172319E2,9.830098E1,3.3661816E2,7.97852E1,8.765861E1,2.936919E2,1.2933132E3],"tree_param":{"num_deleted":"0","num_feature":"15","num_nodes":"31","size_leaf_vector":"1"}},{"base_weights":[-3.2614558E-3,2.5248414E-1,-7.2319734E-1,-1.9524224E-1,5.4126585E-1,-8.839817E-1,-3.7348467E-1,2.7367178E-1,-4.5129213E-1,-2.6512954E-1,8.1902546E-1,-5.6996095E-1,-9.4395167E-1,-8.6207914E-1,6.635118E-1,3.588064E-2,-5.9044715E-3,5.3366986E-3,-3.5953306E-2,-5.3254973E-2,2.6186346E-3,2.1996444E-2,5.4649163E-2,6.104363E-3,-4.2036984E-2,-4.5667212E-2,-5.7395477E-2,-5.5083368E-2,-2.472246E-2,-4.0339595E-3,6.715798E-2],"categories":[],"categories_nodes":[],"categories_segments":[],"categories_sizes":[],"default_left":[0,0,0,0,0,0,0,0,0,0,0,0,0,0,0,0,0,0,0,0,0,0,0,0,0,0,0,0,0,0,0],"id":43,"left_children":[1,3,5,7,9,11,13,15,17,19,21,23,25,27,29,-1,-1,-1,-1,-1,-1,-1,-1,-1,-1,-1,-1,-1,-1,-1,-1],"loss_changes":[1.6422604E3,8.512722E2,1.2860815E2,3.1037476E2,8.977252E2,2.6132202E1,3.7969824E2,1.2005729E2,1.5669775E2,2.1079051E2,1.6316089E2,2.9784851E1,5.053955E0,1.6968872E1,8.959173E1,0E0,0E0,0E0,0E0,0E0,0E0,0E0,0E0,0E0,0E0,0E0,0E0,0E0,0E0,0E0,0E0],"parents":[2147483647,0,0,1,1,2,2,3,3,4,4,5,5,6,6,7,7,8,8,9,9,10,10,11,11,12,12,13,13,14,14],"right_children":[2,4,6,8,10,12,14,16,18,20,22,24,26,28,30,-1,-1,-1,-1,-1,-1,-1,-1,-1,-1,-1,-1,-1,-1,-1,-1],"split_conditions":[4.1704214E-1,-2.8456026E-1,1.8201101E-1,-5.1951706E-1,-8.5627425E-1,-7.4735737E-1,-2.3635185E-1,-6.063049E-1,-9.315411E-1,-5.017021E-1,-4.1981703E-1,-1.0878099E0,7.722693E-1,-7.7412343E-1,-1.2658212E-1,3.588064E-2,-5.9044715E-3,5.3366986E-3,-3.5953306E-2,-5.3254973E-2,2.6186346E-3,2.1996444E-2,5.4649163E-2,6.104363E-3,-4.2036984E-2,-4.5667212E-2,-5.7395477E-2,-5.5083368E-2,-2.472246E-2,-4.0339595E-3,6.715798E-2],"split_indices":[12,5,6,1,7,2,8,12,12,6,6,1,12,8,5,0,0,0,0,0,0,0,0,0,0,0,0,0,0,0,0],"split_type":[0,0,0,0,0,0,0,0,0,0,0,0,0,0,0,0,0,0,0,0,0,0,0,0,0,0,0,0,0,0,0],"sum_hessian":[8.909222E3,6.57409E3,2.3351326E3,2.5761782E3,3.9979114E3,1.5934019E3,7.417306E2,9.0784937E2,1.668329E3,1.0229971E3,2.9749143E3,2.649116E2,1.3284904E3,5.0548917E2,2.3624141E2,4.7243387E2,4.3541547E2,3.9819833E2,1.2701306E3,3.2758774E2,6.954093E2,6.758024E2,2.2991118E3,4.873564E1,2.1617595E2,3.48159E2,9.803313E2,4.111646E2,9.432454E1,9.573901E1,1.405024E2],"tree_param":{"num_deleted":"0","num_feature":"15","num_nodes":"31","size_leaf_vector":"1"}},{"base_weights":[-3.187972E-3,3.7409344E-1,-6.695854E-1,7.067579E-1,4.335195E-3,-3.7974495E-1,-9.392723E-1,7.376157E-1,-6.111834E-2,-4.9271816E-1,3.343105E-1,-8.0504924E-1,-5.712569E-2,-6.9171494E-1,-5.7917904E-2,2.1197105E-2,5.0184324E-2,3.154118E-2,-3.7564207E-2,3.969987E-2,-5.2492563E-2,-2.9953115E-2,-5.2408792E-2,2.6364518E-2,-5.5636264E-2,-2.051513E-2,-5.445647E-2],"categories":[],"categories_nodes":[],"categories_segments":[],"categories_sizes":[],"default_left":[0,0,0,0,0,0,0,0,0,0,0,0,0,0,0,0,0,0,0,0,0,0,0,0,0,0,0],"id":44,"left_children":[1,3,5,7,9,11,13,15,-1,17,19,21,23,25,-1,-1,-1,-1,-1,-1,-1,-1,-1,-1,-1,-1,-1],"loss_changes":[2.1907488E3,6.8305005E2,2.4321582E2,1.6150769E2,4.331899E2,2.0810875E2,2.0979004E1,1.3740869E2,0E0,1.739545E2,7.000595E2,1.5691345E1,4.089895E2,2.653244E1,0E0,0E0,0E0,0E0,0E0,0E0,0E0,0E0,0E0,0E0,0E0,0E0,0E0],"parents":[2147483647,0,0,1,1,2,2,3,3,4,4,5,5,6,6,7,7,9,9,10,10,11,11,12,12,13,13],"right_children":[2,4,6,8,10,12,14,16,-1,18,20,22,24,26,-1,-1,-1,-1,-1,-1,-1,-1,-1,-1,-1,-1,-1],"split_conditions":[3.2329327E-1,-6.621954E-2,8.686699E-1,1.2746654E0,3.2192722E-2,-1.03349835E-1,-1.632639E-1,-3.4243166E-1,-6.111834E-2,-1.1380835E0,9.0192366E-1,-2.858358E-1,8.6427295E-1,1.1255796E0,-5.7917904E-2,2.1197105E-2,5.0184324E-2,3.154118E-2,-3.7564207E-2,3.969987E-2,-5.2492563E-2,-2.9953115E-2,-5.2408792E-2,2.6364518E-2,-5.5636264E-2,-2.051513E-2,-5.445647E-2],"split_indices":[4,14,4,0,0,0,14,0,0,4,0,14,0,4,0,0,0,0,0,0,0,0,0,0,0,0,0],"split_type":[0,0,0,0,0,0,0,0,0,0,0,0,0,0,0,0,0,0,0,0,0,0,0,0,0,0,0],"sum_hessian":[8.705194E3,5.557919E3,3.1472751E3,2.9220967E3,2.6358223E3,1.523361E3,1.6239141E3,2.8745923E3,4.750438E1,1.0492976E3,1.5865247E3,6.5306177E2,8.702992E2,3.4531503E2,1.278599E3,7.5912555E2,2.1154666E3,1.3611897E2,9.1317865E2,1.2375781E3,3.4894653E2,1.8125188E2,4.718099E2,5.555395E2,3.1475977E2,1.5353351E2,1.9178151E2],"tree_param":{"num_deleted":"0","num_feature":"15","num_nodes":"27","size_leaf_vector":"1"}},{"base_weights":[-1.1077697E-2,2.2256E-1,-7.3121107E-1,3.4168884E-1,-8.4387165E-1,-3.6659437E-1,-9.328766E-1,